# DATE: 2025-05-23 UNITS: metal CONTRIBUTOR: Jonas Bloch

# MP2-[aug-cc-pVQZ] fitted potential for neon dimer
FIT_NE2
N 10000

1 0.01 6.80542482347147e+25 2.970034405213267e+28
2 0.011999199919992 8.677322781956212e+24 3.57968018250803e+27
3 0.013998399839983997 1.5208264474892195e+24 5.924291623188645e+26
4 0.015997599759975997 3.3644211358041845e+23 1.2381137069585991e+26
5 0.017996799679967996 8.891843119115554e+22 3.095139666326361e+25
6 0.019995999599959995 2.70404014583183e+22 8.917919934490426e+24
7 0.02199519951995199 9.211696638790018e+21 2.8837448728827333e+24
8 0.02399439943994399 3.4465141196455197e+21 1.0261102986792701e+24
9 0.02599359935993599 1.3951144926229561e+21 3.957710772952983e+23
10 0.02799279927992799 6.038889865590485e+20 1.6353501961086128e+23
11 0.02999199919991999 2.7694978843712455e+20 7.171993342826328e+22
12 0.03199119911991199 1.3356730326550906e+20 3.3132335082509234e+22
13 0.03399039903990399 6.7329141619408495e+19 1.602347122081175e+22
14 0.03598959895989599 3.529501923676754e+19 8.070830403365192e+21
15 0.037988798879887986 1.915981574009085e+19 4.215599700385033e+21
16 0.039987998799879985 1.0731989156362797e+19 2.2750326265472887e+21
17 0.041987198719871985 6.183744111390269e+18 1.2645635265986673e+21
18 0.043986398639863984 3.6556288101894134e+18 7.220108850458832e+20
19 0.045985598559855984 2.212184706572331e+18 4.224515183823738e+20
20 0.04798479847984798 1.3676196648217907e+18 2.527834312973818e+20
21 0.04998399839983998 8.62255049196762e+17 1.544099602796008e+20
22 0.05198319831983198 5.5355866895981626e+17 9.61312190389471e+19
23 0.05398239823982398 3.6137314354841984e+17 6.0911731161107644e+19
24 0.05598159815981598 2.3959841548455926e+17 3.9231600582787015e+19
25 0.05798079807980797 1.6116660273829366e+17 2.5655355596505174e+19
26 0.05997999799979997 1.0987641788239422e+17 1.7017068514130899e+19
27 0.06197919791979197 7.585589587044536e+16 1.1438180287768895e+19
28 0.06397839783978397 5.298868675428372e+16 7.784540781069703e+18
29 0.06597759775977596 3.742583344759477e+16 5.360241281071804e+18
30 0.06797679767976797 2.670963950733817e+16 3.7317409289157647e+18
31 0.06997599759975996 1.924914334081893e+16 2.6250690702914294e+18
32 0.07197519751975197 1.4001105465518812e+16 1.8647528401242775e+18
33 0.07397439743974396 1.0273091736737516e+16 1.3369732299253087e+18
34 0.07597359735973595 7600214962439403.0 9.670142792735731e+17
35 0.07797279727972796 5666960092684548.0 7.052709969610438e+17
36 0.07997199719971995 4256982371987356.5 5.1845500649132346e+17
37 0.08197119711971196 3220487164490447.5 3.839991520809247e+17
38 0.08397039703970395 2452796090373270.0 2.8645595382878797e+17
39 0.08596959695969596 1880113370397523.2 2.1515378030516182e+17
40 0.08796879687968795 1449977950025469.0 1.6265547830780074e+17
41 0.08996799679967996 1124797130806252.2 1.2373457171284766e+17
42 0.09196719671967195 877426984937683.8 9.468874715073608e+16
43 0.09396639663966395 688125249209788.9 7.287531640992155e+16
44 0.09596559655965595 542432922473682.56 5.63941473047847e+16
45 0.09796479647964795 429689747693939.56 4.386944849274915e+16
46 0.09996399639963995 341985949777142.6 3.4298392272407772e+16
47 0.10196319631963195 273416606690290.56 2.6945302141901356e+16
48 0.10396239623962394 219547560804041.3 2.1267148926630056e+16
49 0.10596159615961594 177030278371464.72 1.686072328277984e+16
50 0.10796079607960794 143322321733523.9 1.3424925308833906e+16
51 0.10995999599959994 116483212130204.69 1.0733670777793178e+16
52 0.11195919591959194 95024458370020.03 8616303626962037.0
53 0.11395839583958393 77798744848370.81 6943350040492528.0
54 0.11595759575957594 63917600002941.66 5616097474108579.0
55 0.11795679567956793 52689898382036.555 4558929101194961.0
56 0.11995599559955994 43575687687678.36 3713654751413897.5
57 0.12195519551955193 36151349405773.81 3035296558593953.0
58 0.12395439543954394 30083184768680.77 2488940297463447.0
59 0.12595359535953593 25107295525127.0 2047371506630459.2
60 0.12795279527952794 21014190572877.473 1689292461688244.8
61 0.12995199519951994 17636957218627.234 1397971161695817.2
62 0.13195119511951195 14842133384013.824 1160213152282132.2
63 0.13395039503950393 12522635342797.744 965575706113371.0
64 0.13594959495949593 10592256468389.668 805764752689661.9
65 0.13794879487948794 8981371639280.117 674170203870651.5
66 0.13994799479947995 7633570621640.916 565506524221476.9
67 0.14194719471947193 6503010023662.397 475533660680463.1
68 0.14394639463946393 5552323167276.51 400839571836598.3
69 0.14594559455945594 4750964727331.152 338670157032759.1
70 0.14794479447944794 4073895376487.58 286795794278790.94
71 0.14994399439943992 3500533247511.3853 243406254710892.8
72 0.15194319431943193 3013915482567.8145 207027689746355.3
73 0.15394239423942394 2600025741790.771 176456846113344.38
74 0.15594159415941594 2247253229158.931 150708772027024.56
75 0.15794079407940792 1945956264180.4143 128975122457044.34
76 0.15993999399939993 1688109209683.332 110590817624870.52
77 0.16193919391939193 1467016055935.8403 95007304952789.28
78 0.16393839383938394 1277077459475.5679 81771056830204.92
79 0.16593759375937592 1113600769202.9626 70506231915429.39
80 0.16793679367936792 972644715998.6984 60900656704273.35
81 0.16993599359935993 850892127988.0544 52694462232397.74
82 0.1719351935193519 745545363309.0245 45670849766535.02
83 0.17393439343934392 654240204109.8008 39648568109933.55
84 0.17593359335933592 574974789916.624 34475770519259.957
85 0.17793279327932793 506050832252.85675 30024986429272.95
86 0.1799319931993199 446024881785.69403 26188996224272.793
87 0.1819311931193119 393667842629.4569 22877439278340.316
88 0.18393039303930392 347931267854.57697 20014018804549.832
89 0.18592959295929593 307919243061.8024 17534193563948.623
90 0.1879287928792879 272864884691.63248 15383267633027.387
91 0.1899279927992799 242110657270.4685 13514806340464.88
92 0.19192719271927192 215091857515.90366 11889320041628.535
93 0.19392639263926392 191322729839.92053 10473168293898.662
94 0.1959255925592559 170384772624.6958 9237645770939.66
95 0.1979247924792479 151916871938.51874 8158218338096.665
96 0.1999239923992399 135606962489.71857 7213883442810.135
97 0.2019231923192319 121184967288.02109 6386633621671.74
98 0.2039223922392239 108416809862.55669 5661005702572.642
99 0.2059215921592159 97099327714.89917 5023701355984.152
100 0.2079207920792079 87055944365.95192 4463267159121.129
101 0.2099199919991999 78132981018.53413 3969824388824.695
102 0.2119191919191919 70196508418.01349 3534840440238.6875
103 0.2139183918391839 63129655692.7038 3150935148427.5205
104 0.2159175917591759 56830306396.0675 2811716425111.552
105 0.2179167916791679 51209123143.94435 2511640557924.1343
106 0.2199159915991599 46187851541.493744 2245893291612.464
107 0.2219151915191519 41697861852.59152 2010288449036.5837
108 0.2239143914391439 37678893346.11673 1801181378720.147
109 0.22591359135913588 34077971677.88837 1615394954616.476
110 0.2279127912791279 30848474213.86362 1450156218613.2405
111 0.2299119911991199 27949322017.63612 1303042060102.1382
112 0.2319111911191119 25344280435.333706 1171932580322.534
113 0.23391039103910388 23001352914.516903 1054971000856.9508
114 0.2359095909590959 20892254974.0098 950529152759.0593
115 0.2379087908790879 18991957167.86382 857177731207.2965
116 0.23990799079907987 17278287516.215286 773660625135.9434
117 0.24190719071907188 15731585256.342543 698872735992.6945
118 0.24390639063906389 14334398938.461353 631840787903.8308
119 0.2459055905590559 13071222885.836329 571706705823.427
120 0.24790479047904787 11928266885.295256 517713200964.0969
121 0.24990399039903988 10893254695.349028 469191255830.10114
122 0.25190319031903186 9955247574.232553 425549246061.70245
123 0.2539023902390239 9104489555.553328 386263474350.8698
124 0.25590159015901587 8332271648.535245 350869923988.46844
125 0.25790079007900785 7630812524.569907 318957067056.4847
126 0.2598999899989999 6993153581.629689 290159585643.16516
127 0.26189918991899186 6413066561.226968 264152884368.8094
128 0.2638983898389839 5884972135.931179 240648289497.08554
129 0.26589758975897587 5403868094.822399 219388844418.2292
130 0.26789678967896785 4965265934.614343 200145623702.1145
131 0.2698959895989599 4565134819.72232 182714498547.61655
132 0.27189518951895186 4199852008.84455 166913295566.49542
133 0.27389438943894384 3866158961.702415 152579298661.46533
134 0.2758935893589359 3561122440.025973 139567050478.36237
135 0.27789278927892785 3282100003.8761144 127746415694.28995
136 0.2798919891989199 3026709379.840821 117000873382.75517
137 0.28189118911891187 2792801243.135025 107226009989.84047
138 0.28389038903890385 2578435012.542277 98328188160.71422
139 0.2858895889588959 2381857306.6384153 90223369857.2096
140 0.28788878887888786 2201482752.838475 82836074976.11102
141 0.28988798879887984 2035876878.3737845 76098459075.2048
142 0.29188718871887187 1883740845.079118 69949495891.91895
143 0.29388638863886385 1743897818.4885144 64334252141.97746
144 0.2958855885588559 1615280786.7535257 59203243650.91436
145 0.29788478847884786 1496921666.7833521 54511863232.04689
146 0.29988398839883984 1387941554.1712303 50219871908.45451
147 0.3018831883188319 1287541990.2698379 46290946107.77025
148 0.30388238823882385 1194997134.5148306 42692274357.38105
149 0.30588158815881583 1109646743.0352788 39394197792.05666
150 0.30788078807880787 1030889865.9612488 36369889470.980896
151 0.30987998799879984 958179185.8407466 33595068099.928738
152 0.3118791879187918 891015928.383244 31047742278.1917
153 0.31387838783878386 828945284.5047499 28707981848.58789
154 0.31587758775877584 771552289.4899218 26557713330.91014
155 0.31787678767876787 718458111.1235949 24580536771.837044
156 0.31987598759875985 669316703.9759784 22761561653.912964
157 0.3218751875187518 623811791.7385831 21087259778.23112
158 0.32387438743874386 581654143.6770922 19545333274.65413
159 0.32587358735873584 542579114.9581871 18124596103.926926
160 0.3278727872787278 506344423.87732947 16814867601.435902
161 0.32987198719871985 472728141.91386217 15606876775.838156
162 0.33187118711871183 441526875.11228186 14492176219.923357
163 0.3338703870387038 412554117.5729014 13463064618.385178
164 0.33586958695869584 385638759.8649782 12512516949.622925
165 0.3378687868786878 360623736.98039377 11634121578.128717
166 0.33986798679867986 337364802.05222124 10822023521.99289
167 0.34186718671867183 315729413.49290174 10070873257.967073
168 0.3438663866386638 295595724.4813246 9375780495.553541
169 0.34586558655865585 276851664.8647511 8732272412.805906
170 0.3478647864786478 259394106.55572137 8136255900.844591
171 0.3498639863986398 243128104.4097186 7583983412.329601
172 0.35186318631863184 227966205.37856835 7072022051.994413
173 0.3538623862386238 213827819.4580396 6597225585.464356
174 0.35586158615861585 200638646.59540987 6156709076.491042
175 0.35786078607860783 188330154.3022751 5747825892.947896
176 0.3598599859985998 176839101.23696584 5368146848.823327
177 0.36185918591859184 166107102.48629275 5015441273.452321
178 0.3638583858385838 156080232.6936824 4687659820.624455
179 0.3658575857585758 146708663.55534038 4382918849.315858
180 0.36785678567856783 137946332.54245654 4099486224.862354
181 0.3698559855985598 129750640.0097035 3835768404.646963
182 0.3718551855185518 122082172.12202553 3590298686.0229626
183 0.3738543854385438 114904447.27618092 3361726506.4045057
184 0.3758535853585358 108183683.91354212 3148807696.3946557
185 0.37785278527852784 101888587.81883962 2950395596.619299
186 0.3798519851985198 95990157.17813364 2765432957.7218404
187 0.3818511851185118 90461503.83031295 2592944550.852637
188 0.3838503850385038 85277689.29170458 2432030423.066463
189 0.3858495849584958 80415574.26449205 2281859738.388926
190 0.3878487848784878 75853680.45807199 2141665151.026511
191 0.3898479847984798 71572063.65949006 2010737662.3273392
192 0.3918471847184718 67552197.08584039 1888421917.7171967
193 0.3938463846384638 63776864.13902907 1774111903.9934678
194 0.3958455845584558 60230059.762508415 1667247011.1030173
195 0.3978447844784478 56896899.6713044 1567308425.9033158
196 0.3998439843984398 53763536.79163565 1473815828.448331
197 0.4018431843184318 50817084.30531883 1386324364.0833151
198 0.4038423842384238 48045544.74756054 1304421867.1097023
199 0.4058415841584158 45437744.65519896 1227726314.0161974
200 0.4078407840784078 42983274.30644573 1155883486.2933207
201 0.40983998399839977 40672432.13312808 1088564824.6727858
202 0.4118391839183918 38496173.4227361 1025465458.2867455
203 0.4138383838383838 36446062.9605747 966302393.7333612
204 0.4158375837583758 34514231.292334855 910812850.3894978
205 0.4178367836783678 32693334.314708505 858752729.5353968
206 0.4198359835983598 30976515.926528446 809895205.9663228
207 0.4218351835183518 29357373.49555864 764029431.7722403
208 0.4238343834383438 27829925.916688062 720959342.8793029
209 0.42583358335833577 26388584.05608629 680502559.7749878
210 0.4278327832783278 25028123.39302976 642489374.5903994
211 0.4298319831983198 23743658.686752938 606761817.3961457
212 0.43183118311831176 22530620.509960376 573172795.1885318
213 0.4338303830383038 21384733.503677852 541585297.6068419
214 0.43582958295829577 20301996.220033422 511871663.93548703
215 0.4378287828782878 19278662.430447407 483912906.41113913
216 0.4398279827982798 18311223.786667172 457598085.2805655
217 0.44182718271827176 17396393.731185783 432823731.4407545
218 0.4438263826382638 16531092.561918773 409493312.84621626
219 0.4458255825582558 15712433.563639367 387516741.18914837
220 0.44782478247824775 14937710.12565847 366809915.6512289
221 0.4498239823982398 14204383.771636248 347294300.7929321
222 0.45182318231823176 13510073.033277348 328896535.890241
223 0.4538223822382238 12852543.10503992 311548073.25107235
224 0.4558215821582158 12229696.221922722 295184843.24721324
225 0.45782078207820776 11639562.706920048 279746943.98330206
226 0.4598199819981998 11080292.638890615 265178353.6941399
227 0.46181918191819177 10550148.095401686 251426664.1170208
228 0.46381838183818375 10047495.928615088 238442833.2277698
229 0.4658175817581758 9570801.035503456 226180955.8590328
230 0.46781678167816776 9118620.086646369 214598050.83876386
231 0.46981598159815974 8689595.680579077 203653863.39534494
232 0.47181518151815177 8282450.893173035 193310681.67606384
233 0.47381438143814375 7895984.193832654 183533166.3169541
234 0.4758135813581358 7529064.702415914 174288192.08603844
235 0.47781278127812776 7180627.76274196 165544700.69894192
236 0.47981198119811974 6849670.810349539 157273563.97646263
237 0.4818111811181118 6535249.513830933 149447456.5785858
238 0.48381038103810375 6236474.170596019 142040737.6088294
239 0.48580958095809573 5952506.339332846 135029340.43761995
240 0.48780878087808777 5682555.692733379 128390670.14355493
241 0.48980798079807975 5425877.075254668 122103508.01759616
242 0.4918071807180717 5181767.751795149 116147922.61776344
243 0.49380638063806376 4949564.834190476 110505186.90083806
244 0.49580558055805574 4728642.873379622 105157700.99372618
245 0.49780478047804777 4518411.605966418 100088920.19994323
246 0.49980398039803975 4318313.844710608 95283287.86744666
247 0.5018031803180317 4127823.503229436 90726172.77179474
248 0.5038023802380237 3946443.7458828855 86403810.69473632
249 0.5058015801580157 3773705.2544549666 82303249.90199992
250 0.5078007800780077 3609164.6038358086 78412300.24597977
251 0.5097999799979998 3452402.73945765 74719485.63953403
252 0.5117991799179917 3303023.549745252 71213999.66544096
253 0.5137983798379837 3160652.5273117935 67885664.10361104
254 0.5157975797579757 3024935.513067252 64724890.17392291
255 0.5177967796779678 2895537.5178100485 61722642.30729906
256 0.5197959795979598 2772141.6162476027 58870404.27123719
257 0.5217951795179517 2654447.90873865 56160147.488523506
258 0.5237943794379437 2542172.546372856 53584301.39951079
259 0.5257935793579357 2435046.815302128 51135725.72902842
260 0.5277927792779278 2332816.276515917 48807684.52893948
261 0.5297919791979198 2235239.9575106674 46593821.87652341
262 0.5317911791179117 2142089.5925430013 44488139.11737375
263 0.5337903790379037 2053148.9083789557 42484973.54934832
264 0.5357895789578957 1968212.9526582372 40578978.4514025
265 0.5377887788778877 1887087.462184837 38765104.36787344
266 0.5397879787978798 1809588.2686340995 37038581.565037884
267 0.5417871787178717 1735540.7393326594 35394903.582553074
268 0.5437863786378637 1664779.2509222955 33829811.80775767
269 0.5457855785578557 1597146.6938628827 32339281.005797364
270 0.5477847784778477 1532494.0058634945 30919505.743142568
271 0.5497839783978398 1470679.732455609 29566887.646364674
272 0.5517831783178317 1411569.6130385848 28278023.442005068
273 0.5537823782378237 1355036.190835797 27049693.727060866
274 0.5557815781578157 1300958.4453008494 25878852.42304806
275 0.5577807780778077 1249221.4456072075 24762616.86977683
276 0.5597799779977997 1199716.0239423576 23698258.51793356
277 0.5617791779177917 1152338.467409353 22683194.182325758
278 0.5637783778377837 1106990.2274148848 21714977.820160385
279 0.5657775777577757 1063577.6454941926 20791292.801179364
280 0.5677767776777677 1022011.694589545 19909944.638588775
281 0.5697759775977597 982207.7348610336 19068854.151852984
282 0.5717751775177518 944085.2831663083 18266051.03429624
283 0.5737743774377437 907567.7953999739 17499667.800247937
284 0.5757735773577357 872582.460933832 16767934.088122617
285 0.5777727772777277 839060.0084464265 16069171.297369134
286 0.5797719771977197 806934.5224743887 15401787.538662957
287 0.5817711771177118 776143.2700593586 14764272.878052149
288 0.5837703770377037 746626.536902817 14155194.857017616
289 0.5857695769576957 718327.4724771965 13573194.271574682
290 0.5877687768776877 691191.9435754288 13016981.19461926
291 0.5897679767976797 665168.3958126089 12485331.226745814
292 0.5917671767176717 640207.7226230253 11977081.96169709
293 0.5937663766376637 616263.1413234618 11491129.653494358
294 0.5957655765576557 593290.0758395784 11026426.073112018
295 0.5977647764776477 571246.0457164154 10581975.543335807
296 0.5997639763976397 550090.5610568214 10156832.141149746
297 0.6017631763176317 529785.0230528628 9750097.057677751
298 0.6037623762376237 510292.6297952384 9360916.106320111
299 0.6057615761576157 491578.2870644316 8988477.370316286
300 0.6077607760776077 473608.52382484556 8632008.981507396
301 0.6097599759975997 456351.41215964593 8290777.022584431
302 0.6117591759175917 439776.4913994238 7964083.545581799
303 0.6137583758375836 423854.69621228724 7651264.699826485
304 0.6157575757575757 408558.2884365558 7351688.962964651
305 0.6177567756775677 393860.792449991 7064755.469085976
306 0.6197559755975597 379736.9338814314 6789892.428316738
307 0.6217551755175517 366162.58148198645 6526555.632618796
308 0.6237543754375436 353114.69198343175 6274227.042821404
309 0.6257535753575357 340571.257781411 6032413.452240023
310 0.6277527752775277 328511.2572903342 5800645.222498416
311 0.6297519751975197 316914.6078256135 5578475.087442968
312 0.6317511751175117 305762.1208771203 5365477.021281845
313 0.6337503750375036 295035.45964545483 5161245.1673106225
314 0.6357495749574956 284717.09871990845 4965392.823806115
315 0.6377487748774877 274790.28578382597 4777551.483870901
316 0.6397479747974797 265239.0052395137 4597369.926200983
317 0.6417471747174717 256047.94365087917 4424513.35392931
318 0.6437463746374636 247202.45690770025 4258662.578864463
319 0.6457455745574556 238688.5390207616 4099513.2486000787
320 0.6477447744774477 230492.7924621538 3946775.1141201067
321 0.6497439743974397 222602.39996977855 3800171.335661454
322 0.6517431743174317 215005.09773956836 3659437.82472689
323 0.6537423742374237 207689.14993315874 3524322.6202625073
324 0.6557415741574156 200643.32443270402 3394585.2971292534
325 0.6577407740774076 193856.86977827727 3269996.4051047633
326 0.6597399739973997 187319.4932268174 3150336.9367545363
327 0.6617391739173917 181021.33987490996 3035397.8226044504
328 0.6637383738373837 174952.9727908153 2924979.4521386833
329 0.6657375737573756 169105.35410412148 2818891.219228485
330 0.6677367736773676 163469.8270041738 2716951.0906783724
331 0.6697359735973597 158038.09860106718 2618985.1966491807
332 0.6717351735173517 152802.22360546596 2524827.4417893714
333 0.6737343734373437 147754.5887858471 2434319.1359671513
334 0.6757335733573356 142887.89816398663 2347308.6435662895
335 0.6777327732773276 138195.15891157242 2263651.0503564966
336 0.6797319731973197 133669.6679128097 2183207.8470124733
337 0.6817311731173117 129304.9989597365 2105846.6284027467
338 0.6837303730373037 125094.99054871836 2031440.8078200037
339 0.6857295729572956 121033.73424825617 1959869.3453696964
340 0.6877287728772876 117115.56360979834 1891016.489776963
341 0.6897279727972796 113335.04359473272 1824771.532912718
342 0.6917271727172717 109686.96049212977 1761028.5763781604
343 0.6937263726372637 106166.31230313097 1699686.3095225622
344 0.6957255725572556 102768.299569122 1640647.7983040025
345 0.6977247724772476 99488.31662201762 1583820.2844340578
346 0.6997239723972396 96321.94323609538 1529114.9942781527
347 0.7017231723172317 93264.93666187579 1476446.9570121896
348 0.7037223722372237 90313.22402354462 1425734.8315615628
349 0.7057215721572156 87462.89506235697 1376900.74187633
350 0.7077207720772076 84710.19520936091 1329870.1201179097
351 0.7097199719971996 82051.51897162147 1284571.5573572682
352 0.7117191719171916 79483.40361692884 1240936.6614044877
353 0.7137183718371837 77002.52314273374 1198899.9214107275
354 0.7157175717571757 74605.68251577103 1158398.5789022204
355 0.7177167716771676 72289.81216951089 1119372.504923713
356 0.7197159715971596 70051.96274722618 1081764.0829865409
357 0.7217151715171516 67889.30007906929 1045518.0975314227
358 0.7237143714371437 65799.10038213419 1010581.6276324858
359 0.7257135713571357 63778.74567302596 976903.9456821164
360 0.7277127712771276 61825.71938297842 944436.4208112208
361 0.7297119711971196 59937.60216605512 913132.4268100564
362 0.7317111711171116 58112.06789143437 882947.2543302219
363 0.7337103710371036 56346.87981122026 853838.0271562173
364 0.7357095709570957 54639.88689564334 825763.6223482661
365 0.7377087708770876 52989.0203279124 798684.5940677478
366 0.7397079707970796 51392.290151353336 772563.1009054941
367 0.7417071707170716 49847.78206183432 747362.836543627
368 0.7437063706370636 48353.65433881132 723048.9635891911
369 0.7457055705570557 46908.13490865345 699588.0504266969
370 0.7477047704770476 45509.51853421305 676948.0109441964
371 0.7497039703970396 44156.16412489468 655098.0469949931
372 0.7517031703170316 42846.49216175539 634008.5934639374
373 0.7537023702370236 41578.98223242806 613651.2658139281
374 0.7557015701570156 40352.17067090988 593998.8099945047
375 0.7577007700770076 39164.64829749347 575025.0546003111
376 0.7596999699969996 38015.058254343145 556704.8651727097
377 0.7616991699169916 36902.09393243072 539014.100543457
378 0.7636983698369836 35824.49698574969 521929.5711239313
379 0.7656975697569756 34781.05542891728 505428.9990486178
380 0.7676967696769676 33770.6018144576 489490.9800857948
381 0.7696959695969596 32792.011486233285 474094.94723274646
382 0.7716951695169516 31844.200905656977 459221.13591692207
383 0.7736943694369436 30926.12604747324 444850.55072829453
384 0.7756935693569356 30036.780862048847 430964.9336118188
385 0.7776927692769275 29175.19580125275 417546.7334523834
386 0.7796919691969196 28340.436405141787 404579.0769879107
387 0.7816911691169116 27531.601946797127 392045.74098945165
388 0.7836903690369036 26747.82413277782 379931.1256501074
389 0.7856895689568956 25988.265856775663 368220.2291269638
390 0.7876887688768875 25252.12000416561 356898.62318408524
391 0.7896879687968796 24538.6083052507 345952.4298855003
392 0.7916871687168716 23846.980235102576 335368.2992909779
393 0.7936863686368636 23176.511957992207 325133.388108793
394 0.7956855685568556 22526.505314498387 315235.33926228527
395 0.7976847684768475 21896.28684946658 305662.2623288776
396 0.7996839683968396 21285.20687907409 296402.7148122646
397 0.8016831683168316 20692.638595336004 287445.6842102989
398 0.8036823682368236 20117.977206460735 278780.5708429828
399 0.8056815681568156 19560.639111536126 270397.1714064277
400 0.8076807680768076 19020.061108094338 262285.6632205531
401 0.8096799679967995 18495.699631168765 254436.58913953393
402 0.8116791679167916 17987.03002251795 246840.84309559426
403 0.8136783678367836 17493.545828750484 239489.65624814568
404 0.8156775677567756 17014.758127140285 232374.58371147583
405 0.8176767676767676 16550.194877976133 225487.49183546586
406 0.8196759675967595 16099.400302339478 218820.54601510568
407 0.8216751675167516 15661.934284253453 212366.19900550245
408 0.8236743674367436 15237.371796192652 206117.17972035252
409 0.8256735673567356 14825.302346986751 200066.4824926933
410 0.8276727672767276 14425.329451194282 194207.35677788622
411 0.8296719671967195 14037.070119062078 188533.29727951423
412 0.8316711671167115 13660.15436622505 183038.0344799644
413 0.8336703670367036 13294.224742337195 177715.52555810026
414 0.8356695669566956 12938.935877860109 172559.94567740793
415 0.8376687668766876 12593.954048268015 167565.67962860444
416 0.8396679667966795 12258.956754961107 162727.31381156205
417 0.8416671667166715 11933.632322208523 158039.62854183748
418 0.8436663666366636 11617.679509472102 153497.5906682516
419 0.8456655665566556 11310.807138489172 149096.34648789605
420 0.8476647664766476 11012.733734519474 144831.21494617552
421 0.8496639663966395 10723.187181186739 140697.68110964686
422 0.8516631663166315 10441.904388369276 136691.38990018977
423 0.8536623662366235 10168.630972617224 132808.1400793804
424 0.8556615661566156 9903.120949596228 129043.87847262701
425 0.8576607660766076 9645.136438078298 125394.69442288346
426 0.8596599659965996 9394.44737502065 121856.81446437472
427 0.8616591659165915 9150.831241292995 118426.59720710793
428 0.8636583658365835 8914.072797631623 115100.52842333713
429 0.8656575657565756 8683.96383041664 111875.21632762243
430 0.8676567656765676 8460.302906885372 108747.38704237968
431 0.8696559655965596 8242.89513941091 105713.8802412522
432 0.8716551655165515 8031.551958490557 102771.64496295557
433 0.8736543654365435 7826.090894103172 99917.73558852069
434 0.8756535653565355 7626.335365108822 97149.30797525303
435 0.8776527652765276 7432.114476377409 94463.61574090623
436 0.8796519651965196 7243.262823346036 91858.00669196423
437 0.8816511651165115 7059.620303716839 89329.91939010064
438 0.8836503650365035 6881.03193601926 86876.87985117527
439 0.8856495649564955 6707.347684771637 84496.49837139763
440 0.8876487648764876 6538.422291987928 82186.46647543408
441 0.8896479647964796 6374.115114785816 79944.55398157402
442 0.8916471647164715 6214.289968862059 77768.6061791659
443 0.8936463646364635 6058.814977610783 75656.54111381607
444 0.8956455645564555 5907.562426669172 73606.3469760236
445 0.8976447644764476 5760.408623683796 71616.07958901764
446 0.8996439643964396 5617.233763099292 69683.85999193665
447 0.9016431643164315 5477.9217957786805 67807.87211442758
448 0.9036423642364235 5342.3603032726905 65986.36053905806
449 0.9056415641564155 5210.440376562444 64217.628348051774
450 0.9076407640764075 5082.056499106944 62500.03505096073
451 0.9096399639963996 4957.106434033561 60831.99459009549
452 0.9116391639163915 4835.491115316089 59211.973420614464
453 0.9136383638363835 4717.11454279103 57638.48866232445
454 0.9156375637563755 4601.883680868852 56110.10632037643
455 0.9176367636763675 4489.708360802414 54625.43957212853
456 0.9196359635963596 4380.501186380282 53183.14711759884
457 0.9216351635163516 4274.177442917857 51781.93159099736
458 0.9236343634363435 4170.655009424105 50420.538030964795
459 0.9256335633563355 4069.8542738266474 49097.75240721752
460 0.9276327632763275 3971.698051142352 47812.40020141288
461 0.9296319631963195 3876.111504485063 46563.34504012099
462 0.9316311631163116 3783.022068806289 45349.48737788436
463 0.9336303630363035 3692.3593772687454 44169.763228434545
464 0.9356295629562955 3604.0551901563945 43023.14294220007
465 0.9376287628762875 3518.0433262285446 41908.63002832586
466 0.9396279627962795 3434.259596428942 40825.260019494024
467 0.9416271627162716 3352.6417398643134 39772.099377900435
468 0.9436263626362635 3273.129361970102 38748.24444081889
469 0.9456255625562555 3195.663874784187 37752.8204042359
470 0.9476247624762475 3120.188439252567 36784.98034310329
471 0.9496239623962395 3046.6479094937285 35843.90426683049
472 0.9516231623162315 2974.988778951281 34928.79820863895
473 0.9536223622362235 2905.15912836715 34038.89334756457
474 0.9556215621562155 2837.1085755100835 33173.445161803196
475 0.9576207620762075 2770.7882265967482 32331.732612259017
476 0.9596199619961995 2706.150629345118 31513.057355148605
477 0.9616191619161915 2643.1497276020023 30716.742982563956
478 0.9636183618361835 2581.740817488843 29942.134289956062
479 0.9656175617561755 2521.8805050119736 29188.59656952139
480 0.9676167616761675 2463.5266650855083 28455.51492853299
481 0.9696159615961595 2406.6384019170546 27742.293631679786
482 0.9716151615161515 2351.1760107082064 27048.35546652871
483 0.9736143614361434 2297.1009406236076 26373.14113124227
484 0.9756135613561355 2244.375758984088 25716.10864373888
485 0.9776127612761275 2192.96411664102 25076.732771491388
486 0.9796119611961195 2142.8307144905943 24454.504481212105
487 0.9816111611161115 2093.9412710883116 23848.93040768614
488 0.9836103610361034 2046.2624913253712 23259.532341055616
489 0.9856095609560955 1999.7620361300794 22685.846731869842
490 0.9876087608760875 1954.408493158775 22127.424213259652
491 0.9896079607960795 1910.1713484419977 21583.82913960829
492 0.9916071607160715 1867.0209589529723 21054.639141111926
493 0.9936063606360634 1824.9285260666013 20539.444693660378
494 0.9956055605560555 1783.8660698783535 20037.84870348141
495 0.9976047604760475 1743.8064043535421 19549.46610599617
496 0.9996039603960395 1704.7231132785487 19073.923478407352
497 1.0016031603160314 1666.5905269865857 18610.858665482538
498 1.0036023602360233 1629.383699831571 18159.920418099093
499 1.0056015601560153 1593.0783883846466 17720.76804404935
500 1.0076007600760075 1557.6510303287828 17293.07107070617
501 1.0095999599959995 1523.0787240278114 16876.508919095962
502 1.0115991599159915 1489.3392087470108 16470.770588986914
503 1.0135983598359835 1456.410845503302 16075.554354591828
504 1.0155975597559754 1424.2725985237753 15690.567470510465
505 1.0175967596759674 1392.904017292102 15315.525887550313
506 1.0195959595959594 1362.2852191630764 14950.153978069944
507 1.0215951595159514 1332.3968725262512 14594.18427051098
508 1.0235943594359436 1303.2201805002942 14247.357192796606
509 1.0255935593559355 1274.736865140358 13909.420824279237
510 1.0275927592759275 1246.9291521413243 13580.130655938676
511 1.0295919591959195 1219.779756020491 13259.249358543157
512 1.0315911591159115 1193.2718657637379 12946.546558488282
513 1.0335903590359035 1167.3891309198357 12641.798621060274
514 1.0355895589558954 1142.1156481280573 12344.788440829781
515 1.0375887588758874 1117.4359480648325 12055.305238980965
516 1.0395879587958794 1093.3349827955828 11773.144367282574
517 1.0415871587158714 1069.7981135184575 11498.107118503629
518 1.0435863586358634 1046.8110986870859 11230.000543033131
519 1.0455855585558556 1024.3600824999417 10968.637271502406
520 1.0475847584758475 1002.431583744333 10713.835343189941
521 1.0495839583958395 981.0124849834204 10465.418040020024
522 1.0515831583158315 960.0900220751298 10223.21372595479
523 1.0535823582358235 939.6517740121401 9987.055691601448
524 1.0555815581558154 919.685653072535 9756.782003851242
525 1.0575807580758074 900.1798952710565 9532.235360378561
526 1.0595799579957994 881.1230511012429 9313.262948837797
527 1.0615791579157914 862.5039765590622 9099.716310592845
528 1.0635783578357834 844.3118244389752 8891.451208829389
529 1.0655775577557753 826.5360358936709 8688.32750089878
530 1.0675767576757675 809.1663322490081 8490.209014751537
531 1.0695759575957595 792.1927070660016 8296.963429319778
532 1.0715751575157515 775.6054184419291 8108.4621587196025
533 1.0735743574357435 759.3949815429589 7924.580240139341
534 1.0755735573557355 743.5521613609023 7745.1962252946005
535 1.0775727572757274 728.0679656869712 7570.192075326968
536 1.0795719571957194 712.9336382956536 7399.453059033127
537 1.0815711571157114 698.1406523320502 7232.86765431062
538 1.0835703570357034 683.6807038962398 7070.327452717081
539 1.0855695569556953 669.5457058184508 6911.727067032575
540 1.0875687568756873 655.7277816190328 6756.964041733076
541 1.0895679567956795 642.2192596474099 6605.93876627149
542 1.0915671567156715 629.012667394408 6458.554391076725
543 1.0935663566356635 616.1007259725036 6314.71674618155
544 1.0955655565556555 603.4763447587654 6174.334262388633
545 1.0975647564756474 591.1326161953943 6037.317894896278
546 1.0995639563956394 579.0628107429516 5903.581049297224
547 1.1015631563156314 567.2603719815304 5773.0395098783765
548 1.1035623562356234 555.718911855271 5645.611370140805
549 1.1055615561556154 544.4322060557797 5521.216965471289
550 1.1075607560756073 533.3941895401512 5399.778807892425
551 1.1095599559955993 522.5989521794382 5281.221522825268
552 1.1115591559155915 512.0407345335449 5165.471787798017
553 1.1135583558355835 501.71392374865826 5052.458273037661
554 1.1155575557555755 491.61304957343856 4942.1115838840105
555 1.1175567556755674 481.7327804903462 4834.364204966452
556 1.1195559555955594 472.0679199585652 4729.150446086566
557 1.1215551555155514 462.6134027651189 4626.40638975229
558 1.1235543554355434 453.36429148087575 4526.069840308858
559 1.1255535553555354 444.3157730182522 4428.08027461761
560 1.1275527552755273 435.4631552875186 4332.378794229721
561 1.1295519551955193 426.8018639487196 4238.908079010481
562 1.1315511551155113 418.3274392563085 4147.6123421647435
563 1.1335503550355035 410.03553299369406 4058.437286620974
564 1.1355495549554955 401.92190549498895 3971.3300627287663
565 1.1375487548754875 393.98242275131986 3886.2392272300985
566 1.1395479547954794 386.21305359917176 3803.1147034615465
567 1.1415471547154714 378.6098669882911 3721.9077427500956
568 1.1435463546354634 371.1690293267676 3642.5708869644654
569 1.1455455545554554 363.88680190098313 3565.057932186357
570 1.1475447544754473 356.7595383681894 3489.323893460397
571 1.1495439543954393 349.7836823195573 3415.3249706007355
572 1.1515431543154313 342.9557649115857 3343.018515008161
573 1.1535423542354235 336.2724025638489 3272.362997474756
574 1.1555415541554155 329.73029472111267 3203.3179769406133
575 1.1575407540754075 323.32622167790413 3135.8440701753734
576 1.1595399539953994 317.0570424637022 3069.902922354719
577 1.1615391539153914 310.9196927869475 3005.4571785028447
578 1.1635383538353834 304.9111830361453 2942.470455776681
579 1.1655375537553754 299.0285963363778 2880.9073165627947
580 1.1675367536753674 293.26908665960116 2820.7332423636226
581 1.1695359535953593 287.6298769871491 2761.914608447952
582 1.1715351535153513 282.10825752291527 2704.418659242118
583 1.1735343534353433 276.7015839557336 2648.2134844392353
584 1.1755335533553355 271.4072757695204 2593.2679958037957
585 1.1775327532753275 266.2228145997917 2539.5519046507156
586 1.1795319531953194 261.14574263519853 2487.035699978663
587 1.1815311531153114 256.173661062784 2435.6906272359083
588 1.1835303530353034 251.30422855568875 2385.488667701486
589 1.1855295529552954 246.53515980207817 2336.402518460842
590 1.1875287528752874 241.8642240741022 2288.4055729597785
591 1.1895279527952793 237.2892438357318 2241.4719021172223
592 1.1915271527152713 232.8080933883548 2195.5762359814103
593 1.1935263526352633 228.41869755304447 2150.693945911911
594 1.1955255525552553 224.11903038845014 2106.8010272720044
595 1.1975247524752475 219.90711394328846 2063.874082616158
596 1.1995239523952395 215.78101704244872 2021.8903053574181
597 1.2015231523152314 211.73885410574562 1980.827463899652
598 1.2035223522352234 207.77878399839952 1940.663886222434
599 1.2055215521552154 203.8990089123323 1901.3784449025034
600 1.2075207520752074 200.09777327740875 1862.950542561072
601 1.2095199519951993 196.37336270177164 1825.3600977223468
602 1.2115191519151913 192.72410294044857 1788.5875310725153
603 1.2135183518351833 189.14835889142975 1752.6137521057801
604 1.2155175517551753 185.64453361844303 1717.420146147242
605 1.2175167516751673 182.21106739967286 1682.9885617404518
606 1.2195159515951595 178.84643680169356 1649.3012983892502
607 1.2215151515151514 175.5491537779111 1616.3410946435026
608 1.2235143514351434 172.31776479082006 1584.0911165177845
609 1.2255135513551354 169.1508499574177 1552.5349462345152
610 1.2275127512751274 166.0470222171209 1521.6565712806048
611 1.2295119511951194 163.00492652156146 1491.440373768989
612 1.2315111511151113 160.0232390456497 1461.8711200964653
613 1.2335103510351033 157.10066641931425 1432.9339508882035
614 1.2355095509550953 154.23594497934477 1404.6143712213436
615 1.2375087508750873 151.42784004077947 1376.8982411191616
616 1.2395079507950792 148.67514518729695 1349.771766307779
617 1.2415071507150715 145.9766815800867 1323.221489228106
618 1.2435063506350634 143.3312972846902 1297.2342802952062
619 1.2455055505550554 140.73786661531318 1271.797329398218
620 1.2475047504750474 138.19528949613425 1246.8981376334973
621 1.2495039503950394 135.70249083913922 1222.524509264715
622 1.2515031503150313 133.25841993802896 1198.664543902608
623 1.2535023502350233 130.86204987776165 1175.3066288986884
624 1.2555015501550153 128.51237695930135 1152.439431947203
625 1.2575007500750073 126.2084201391569 1130.0518938865323
626 1.2594999499949993 123.94922048331216 1108.1332216991552
627 1.2614991499149912 121.73384063515076 1086.6728816997947
628 1.2634983498349834 119.56136429699883 1065.6605929089794
629 1.2654975497549754 117.4308957249166 1045.0863206058293
630 1.2674967496749674 115.34155923637671 1024.9402700552823
631 1.2694959495949594 113.29249873048563 1005.2128804044434
632 1.2714951495149514 111.28287722040616 985.8948187435951
633 1.2734943494349433 109.31187637765346 966.9769743268114
634 1.2754935493549353 107.37869608794522 948.4504529479287
635 1.2774927492749273 105.48255401829536 930.3065714674619
636 1.2794919491949193 103.6226851950496 912.5368524858437
637 1.2814911491149112 101.79834159257017 895.1330191593196
638 1.2834903490349032 100.00879173228468 878.0869901541802
639 1.2854895489548954 98.25332029182225 861.3908747354965
640 1.2874887488748874 96.53122772396922 845.0369679865939
641 1.2894879487948794 94.84182988518016 829.017746155453
642 1.2914871487148714 93.18445767339425 813.3258621247891
643 1.2934863486348633 91.55845667490696 797.9541410021144
644 1.2954855485548553 89.96318682005827 782.8955758261934
645 1.2974847484748473 88.39802204750447 768.1433233873366
646 1.2994839483948393 86.86234997684613 753.6907001575532
647 1.3014831483148313 85.35557158939245 739.5311783280874
648 1.3034823482348232 83.87710091684737 725.6583819510854
649 1.3054815481548152 82.42636473770925 712.0660831825456
650 1.3074807480748074 81.00280228118154 698.7481986236895
651 1.3094799479947994 79.60586493839853 685.6987857583292
652 1.3114791479147914 78.23501598077188 672.9120394830176
653 1.3134783478347833 76.88973028527579 660.3822887280126
654 1.3154775477547753 75.56949406648663 648.1039931661205
655 1.3174767476747673 74.27380461520244 636.0717400072926
656 1.3194759475947593 73.0021700434707 624.280240876381
657 1.3214751475147513 71.75410903585806 612.724328771914
658 1.3234743474347432 70.52915060680012 601.3989551037535
659 1.3254735473547352 69.32683386387343 590.2991868071579
660 1.3274727472747272 68.14670777683723 579.420203531489
661 1.3294719471947194 66.98833095229521 568.7572949015323
662 1.3314711471147114 65.85127141383322 558.3058578490267
663 1.3334703470347034 64.73510638749039 548.0613940130069
664 1.3354695469546953 63.639422092428894 538.0195072069679
665 1.3374687468746873 62.5638135366666 528.1759009506214
666 1.3394679467946793 61.50788431774443 518.5263760651789
667 1.3414671467146713 60.47124642820119 509.06682832988525
668 1.3434663466346632 59.453520065733514 499.79324619835256
669 1.3454655465546552 58.454333447921236 490.7017085733154
670 1.3474647464746472 57.47332263140154 481.7883826375846
671 1.3494639463946394 56.510131335379306 473.0495217406099
672 1.3514631463146314 55.564410769363235 464.48146333820966
673 1.3534623462346234 54.63581946501973 456.0806269848525
674 1.3554615461546153 53.72402311204172 447.84351237641124
675 1.3574607460746073 52.82869439792987 439.7666974426592
676 1.3594599459945993 51.94951285158737 431.84683648761825
677 1.3614591459145913 51.086164690632536 424.08065837690333
678 1.3634583458345833 50.238342672335285 416.4649647705888
679 1.3654575457545752 49.40574594808646 408.9966284004372
680 1.3674567456745672 48.58807992131132 401.6725913905844
681 1.3694559455945592 47.78505610874029 394.48986361954746
682 1.3714551455145514 46.99639200495436 387.4455211242321
683 1.3734543454345434 46.221810950121544 380.536704542946
684 1.3754535453545353 45.461042000845275 373.7606175976035
685 1.3774527452745273 44.71381980404799 367.1145256136563
686 1.3794519451945193 43.97988447381328 360.59575407679614
687 1.3814511451145113 43.2589814711135 354.20168722551324
688 1.3834503450345033 42.55086148635123 347.9297666785286
689 1.3854495449544952 41.85528032464469 341.7774900961891
690 1.3874487448744872 41.17199879378933 335.7424098750124
691 1.3894479447944792 40.50078259482929 329.82213187435724
692 1.3914471447144712 39.84140221517449 324.01431417460105
693 1.3934463446344634 39.1936328242003 318.3166658657437
694 1.3954455445544554 38.55725417126939 312.7269458659157
695 1.3974447444744473 37.93205048611492 307.2429617688159
696 1.3994439443944393 37.3178103815286 301.86256871937616
697 1.4014431443144313 36.71432675829625 296.5836683170444
698 1.4034423442344233 36.12139671232589 291.4042075457374
699 1.4054415441544152 35.538821443915126 286.32217773002
700 1.4074407440744072 34.96640616910534 281.3356135166565
701 1.4094399439943992 34.40396003307195 276.44259188099545
702 1.4114391439143912 33.851296025501085 271.64123115747253
703 1.4134383438343832 33.308230897904544 266.92969009362645
704 1.4154375437543754 32.77458508282582 262.3061669270959
705 1.4174367436743673 32.25018261489177 257.7688984849132
706 1.4194359435943593 31.73485105366431 253.31615930456994
707 1.4214351435143513 31.22842140824994 248.94626077629823
708 1.4234343434343433 30.730728063623662 244.65755030605018
709 1.4254335433543353 30.241608708626373 240.4484104985601
710 1.4274327432743272 29.760904265595453 236.3172583601165
711 1.4294319431943192 29.288458821589185 232.26254452040902
712 1.4314311431143112 28.82411956116685 228.28275247305046
713 1.4334303430343032 28.36773670068718 224.3763978342837
714 1.4354295429542951 27.91916342408879 220.54202761938137
715 1.4374287428742873 27.478255820117205 216.77821953635376
716 1.4394279427942793 27.044872820964123 213.08358129643614
717 1.4414271427142713 26.618876142284684 209.45674994105775
718 1.4434263426342633 26.20013022456074 205.89639118475714
719 1.4454255425542553 25.788502175777538 202.40119877371157
720 1.4474247424742472 25.383861715382853 198.96989385947194
721 1.4494239423942392 24.986081119498184 195.6012243875376
722 1.4514231423142312 24.595035167352286 192.293964500363
723 1.4534223422342232 24.21060108890822 189.04691395445627
724 1.4554215421542152 23.83265851365574 185.8588975512662
725 1.4574207420742071 23.46108942054145 182.72876458140365
726 1.4594199419941993 23.095778089010036 179.65538828199433
727 1.4614191419141913 22.736611051130545 176.637665306686
728 1.4634183418341833 22.38347704478185 173.67451520823053
729 1.4654175417541753 22.03626696787291 170.76487993299153
730 1.4674167416741672 21.694873833573432 167.90772332746047
731 1.4694159415941592 21.359192726531138 165.1020306561418
732 1.4714151415141512 21.029120760052866 162.34680813081116
733 1.4734143414341432 20.704557034226795 159.64108245063167
734 1.4754135413541352 20.38540259496406 156.9839003530356
735 1.4774127412741271 20.071560393938242 154.37432817506402
736 1.4794119411941191 19.76293524940184 151.81145142471593
737 1.4814111411141113 19.459433807859646 149.29437436247974
738 1.4834103410341033 19.160964506578924 146.8222195923361
739 1.4854095409540953 18.86743753691688 144.39412766233497
740 1.4874087408740873 18.57876480844703 142.00925667431167
741 1.4894079407940792 18.294859913865626 139.6667819026606
742 1.4914071407140712 18.01563809466029 137.36589542182978
743 1.4934063406340632 17.74101620752334 135.1058057424147
744 1.4954055405540552 17.470912691492654 132.8857374555849
745 1.4974047404740471 17.205247535803373 130.70493088566178
746 1.4994039403940391 16.9439422484342 128.56264175067216
747 1.501403140314031 16.6869198253323 126.45814083062479
748 1.5034023402340233 16.434104720301352 124.39071364339212
749 1.5054015401540153 16.185422815537738 122.35966012797083
750 1.5074007400740073 15.940801392799653 120.36429433495499
751 1.5093999399939992 15.70016910519532 118.40394412405333
752 1.5113991399139912 15.463455949575778 116.47795086846844
753 1.5133983398339832 15.230593239518706 114.58566916599366
754 1.5153975397539752 15.001513578889824 112.7264665566396
755 1.5173967396739672 14.776150835968812 110.8997232466644
756 1.5193959395939591 14.554440118126948 109.10483183883444
757 1.5213951395139511 14.336317747044012 107.34119706875722
758 1.523394339433943 14.121721234452309 105.60823554718684
759 1.5253935393539353 13.910589258395856 103.90537550809881
760 1.5273927392739273 13.702861639993328 102.23205656244453
761 1.5293919391939192 13.498479320693074 100.58772945742963
762 1.5313911391139112 13.297384340009605 98.97185584118847
763 1.5333903390339032 13.099519813730444 97.38390803273134
764 1.5353895389538952 12.904829912582901 95.823368797029
765 1.5373887388738872 12.713259841350519 94.28973112513607
766 1.5393879387938791 12.524755818429082 92.78249801918007
767 1.5413871387138711 12.339265055812481 91.30118228220181
768 1.543386338633863 12.15673573949873 89.84530631261357
769 1.545385538553855 11.977117010306898 88.41440190325618
770 1.5473847384738473 11.80035894509575 87.00801004490796
771 1.5493839383938393 11.626412538375309 85.62568073413891
772 1.5513831383138312 11.45522968430236 84.26697278543057
773 1.5533823382338232 11.28676315905176 82.93145364745016
774 1.5553815381538152 11.12096660355496 81.61869922336595
775 1.5573807380738072 10.957794506597757 80.32829369513617
776 1.5593799379937991 10.797202188269349 79.05982935167711
777 1.5613791379137911 10.639145783754897 77.81290642077488
778 1.563378337833783 10.48358222746414 76.58713290473943
779 1.565377537753775 10.33046923748857 75.38212441961686
780 1.5673767376737673 10.17976530038003 74.19750403795992
781 1.5693759375937593 10.031429656243736 73.03290213501903
782 1.5713751375137512 9.885422284138624 71.88795623830131
783 1.5733743374337432 9.741703887778625 70.76231088041496
784 1.5753735373537352 9.600235881528052 69.65561745511478
785 1.5773727372737272 9.460980376684795 68.56753407649707
786 1.5793719371937192 9.323900168045014 67.49772544123692
787 1.5813711371137111 9.188958720743253 66.44586269383312
788 1.5833703370337031 9.056120157361944 65.41162329476845
789 1.585369536953695 8.925349245304497 64.3946908915318
790 1.587368736873687 8.796611384426239 63.39475519241187
791 1.5893679367936793 8.669872594917644 62.411511843082096
792 1.5913671367136712 8.545099505434376 61.444662305719824
793 1.5933663366336632 8.422259341468846 60.49391374088931
794 1.5953655365536552 8.301319913958059 59.55897889185584
795 1.5973647364736472 8.182249608122657 58.63957597143082
796 1.5993639363936392 8.065017372532209 57.735428551235216
797 1.6013631363136311 7.949592708391877 56.846265453349886
798 1.6033623362336231 7.835945659045697 55.97182064427665
799 1.605361536153615 7.724046799691854 55.111833131171295
800 1.607360736073607 7.613867227305405 54.26604686029661
801 1.609359935993599 7.505378550764019 53.434210617644126
802 1.6113591359135913 7.398552881172378 52.61607793166624
803 1.6133583358335832 7.293362822381099 51.8114069780891
804 1.6153575357535752 7.189781461695832 51.01996048674655
805 1.6173567356735672 7.087782360772734 50.24150565039394
806 1.6193559355935592 6.98733954669619 49.47581403544621
807 1.6213551355135511 6.888427503234988 48.72266149463193
808 1.6233543354335431 6.791021162273124 47.98182808146383
809 1.625353535353535 6.695095895411592 47.253097966547884
810 1.627352735273527 6.600627505737497 46.536259355636005
811 1.629351935193519 6.507592219756983 45.83110440941856
812 1.631351135113511 6.4159666794885295 45.13742916500936
813 1.6333503350335032 6.325727934713189 44.455033459068154
814 1.6353495349534952 6.236853435378579 43.7837208525512
815 1.6373487348734872 6.149321024153208 43.12329855703751
816 1.6393479347934792 6.063108929128188 42.47357736259527
817 1.6413471347134712 5.978195756663115 41.83437156716619
818 1.6433463346334631 5.894560484373121 41.205498907418445
819 1.6453455345534551 5.812182454254181 40.586780491044415
820 1.647344734473447 5.731041365943753 39.978040730481816
821 1.649343934393439 5.651117270113938 39.379107277999196
822 1.651343134313431 5.572390561994406 38.78981096214312
823 1.653342334233423 5.494841975022386 38.20998572550544
824 1.6553415341534152 5.418452574617052 37.63946856377732
825 1.6573407340734072 5.343203752075808 37.07809946607109
826 1.6593399339933992 5.269077218589784 36.52572135648157
827 1.6613391339133912 5.196054999376257 35.98218003684108
828 1.6633383338333831 5.124119427925467 35.44732413068385
829 1.6653375337533751 5.053253140359474 34.92100502833639
830 1.667336733673367 4.9834390699007844 34.40307683316074
831 1.669335933593359 4.914660441448452 33.89339630889999
832 1.671335133513351 4.846900766259442 33.391822828102384
833 1.673334333433343 4.780143836733114 32.89821832160202
834 1.675333533353335 4.714373721296688 32.41244722905364
835 1.6773327332733272 4.649574759389613 31.93437645045309
836 1.6793319331933192 4.585731556544873 31.463875298678115
837 1.6813311331133112 4.522828979565118 31.00081545298023
838 1.6833303330333032 4.460852151791834 30.545070913430287
839 1.6853295329532951 4.399786448465555 30.09651795630343
840 1.687328732873287 4.339617492175276 29.655035090356137
841 1.689327932793279 4.280331148395277 29.220503014009548
842 1.691327132713271 4.221913521107544 28.79280457338844
843 1.693326332633263 4.164350948508081 28.371824721222566
844 1.695325532553255 4.107629998795386 27.957450476576483
845 1.697324732473247 4.051737466039435 27.549570885396736
846 1.6993239323932392 3.99666036612953 27.148076981850814
847 1.7013231323132312 3.942385932799478 26.752861750470327
848 1.7033223322332232 3.888901613728381 26.363820089012478
849 1.7053215321532151 3.8361950667157445 25.980848772120584
850 1.7073207320732071 3.7842541559291973 25.60384641569051
851 1.709319931993199 3.733066948223462 25.23271344194993
852 1.711319131913191 3.682621709529135 24.867352045254687
853 1.713318331833183 3.6329069013098496 24.507666158557726
854 1.715317531753175 3.583911177086471 24.153561420560003
855 1.717316731673167 3.535623379026966 23.80494514351202
856 1.719315931593159 3.4880325346006433 23.461726281662486
857 1.7213151315131512 3.441127853295465 23.123815400341268
858 1.7233143314331432 3.3948987233971932 22.791124645646097
859 1.7253135313531351 3.3493347088290903 22.463567714750262
860 1.7273127312731271 3.3044255460510272 22.14105982678791
861 1.729311931193119 3.2601611410167752 21.823517694327794
862 1.731311131113111 3.2165315661883316 21.510859495402247
863 1.733310331033103 3.1735270576061647 21.20300484610813
864 1.735309530953095 3.131138012014236 20.89987477372867
865 1.737308730873087 3.089354984038755 20.601391690410868
866 1.739307930793079 3.0481686834195623 20.307479367340942
867 1.741307130713071 3.0075699722931355 20.018062909450865
868 1.7433063306330632 2.9675498625261625 19.73306873060385
869 1.7453055305530552 2.928099513098743 19.452424529283142
870 1.7473047304730471 2.88921022753615 19.17605926475669
871 1.749303930393039 2.850873451388287 18.903903133701586
872 1.751303130313031 2.813080769755855 18.63588754729987
873 1.753302330233023 2.7758239048623135 18.37194510877574
874 1.755301530153015 2.739094713670752 18.112009591373468
875 1.757300730073007 2.702885185544784 17.856015916771558
876 1.759299929992999 2.667187439952599 17.603900133909896
877 1.761299129912991 2.6319937242133395 17.35559939823988
878 1.7632983298329832 2.5972964112849617 17.111051951374858
879 1.7652975297529752 2.5630879975927945 16.870197101132153
880 1.7672967296729671 2.529361100897962 16.632975201975054
881 1.7692959295929591 2.496108458204945 16.39932763582394
882 1.771295129512951 2.4633229237074836 16.169196793246194
883 1.773294329432943 2.4309974667720913 15.94252605500777
884 1.775293529352935 2.3991251699584497 15.719259773987092
885 1.777292729272927 2.3676992270759616 15.499343257431049
886 1.779291929192919 2.3367129412757772 15.282722749562367
887 1.781291129112911 2.3061597231775925 15.069345414516887
888 1.783290329032903 2.276033089030559 14.859159319611255
889 1.7852895289528952 2.2463266589076407 14.652113418938184
890 1.7872887288728871 2.217034154932786 14.44815753726726
891 1.7892879287928791 2.18814939954025 14.247242354265987
892 1.791287128712871 2.159666313765495 14.049319389016373
893 1.793286328632863 2.1315789155670317 13.854340984831325
894 1.795285528552855 2.1038813181786153 13.662260294363035
895 1.797284728472847 2.076567728491215 13.473031264995269
896 1.799283928392839 2.049632445464187 13.286608624511757
897 1.801283128312831 2.0230698585650986 13.102947867046137
898 1.803282328232823 1.9968744462376409 12.922005239292467
899 1.805281528152815 1.9710407743971115 12.743737726981104
900 1.8072807280728072 1.9455634949529292 12.568103041613302
901 1.8092799279927991 1.920437344357685 12.395059607447147
902 1.811279127912791 1.8956571421821808 12.224566548728363
903 1.813278327832783 1.8712177897160265 12.056583677172473
904 1.815277527752775 1.8471142685932467 11.891071479665667
905 1.817276727672767 1.8233416394424802 11.727991106220072
906 1.819275927592759 1.7998950405612584 11.56730435814458
907 1.821275127512751 1.7767696866139329 11.408973676439276
908 1.823274327432743 1.7539608673528049 11.252962130414188
909 1.825273527352735 1.731463946362008 11.099233406515994
910 1.827272727272727 1.709274359823729 10.947751797373947
911 1.8292719271927191 1.6873876153063245 10.798482191040817
912 1.8312711271127111 1.665799290573961 10.651390060445715
913 1.833270327032703 1.6445050324173145 10.506441453041287
914 1.835269526952695 1.623500555504994 10.363602980640689
915 1.837268726872687 1.6027816412552685 10.222841809454343
916 1.839267926792679 1.5823441367277167 10.084125650304399
917 1.841267126712671 1.562183953534439 9.947422749025463
918 1.843266326632663 1.542297066770461 9.81270187704636
919 1.845265526552655 1.5226795139629647 9.679932322144706
920 1.847264726472647 1.5033273940390053 9.549083879374777
921 1.849263926392639 1.4842368663113625 9.420126842163777
922 1.8512631263126311 1.4654041494821923 9.293031993575127
923 1.853262326232623 1.446825520664154 9.167770597732867
924 1.855261526152615 1.4284973144186617 9.044314391403493
925 1.857260726072607 1.4104159218109855 8.922635575738784
926 1.859259925992599 1.392577789481851 8.802706808164224
927 1.861259125912591 1.3749794187352562 8.684501194424602
928 1.863258325832583 1.3576173646421923 8.567992280772815
929 1.865257525752575 1.3404882351599794 8.453154046302704
930 1.867256725672567 1.3235886902669312 8.33996089542306
931 1.869255925592559 1.3069154411120651 8.22838765047413
932 1.871255125512551 1.2904652491795743 8.118409544473728
933 1.873254325432543 1.2742349254677985 8.010002214001696
934 1.875253525352535 1.2582213296824307 7.903141692211897
935 1.877252725272527 1.2424213694436754 7.797804401975867
936 1.879251925192519 1.2268319995071322 7.693967149146327
937 1.881251125112511 1.211450220998138 7.591607115950061
938 1.883250325032503 1.19627308065932 7.490701854498283
939 1.885249524952495 1.1812976701111233 7.391229280415743
940 1.887248724872487 1.1665211251250738 7.29316766658711
941 1.889247924792479 1.1519406249095447 7.1964956370155395
942 1.891247124712471 1.1375533914078007 7.101192160795637
943 1.893246324632463 1.1233566886080903 7.007236546194044
944 1.895245524552455 1.1093478218655728 6.914608434836651
945 1.897244724472447 1.0955241372358715 6.823287796005543
946 1.899243924392439 1.081883020820015 6.73325492103368
947 1.901243124312431 1.0684218981205988 6.644490417805988
948 1.903242324232423 1.0551382334089336 6.556975205357183
949 1.905241524152415 1.0420295291029942 6.470690508566443
950 1.907240724072407 1.0290933251559753 6.385617852952491
951 1.909239923992399 1.0163271984552533 6.301739059556527
952 1.911239123912391 1.0037287622315776 6.21903623992157
953 1.913238323832383 0.9912956654782992 6.137491791160199
954 1.9152375237523749 0.9790255923804603 6.057088391112772
955 1.917236723672367 0.9669162617535619 5.977808993589455
956 1.919235923592359 0.9549654264918506 5.899636823701757
957 1.921235123512351 0.9431708730259243 5.822555373273145
958 1.923234323432343 0.9315304207895277 5.7465483963387
959 1.925233523352335 0.9200419216953374 5.671599904713506
960 1.927232723272327 0.9087032596196076 5.5976941636552695
961 1.929231923192319 0.8975123498954884 5.524815687591695
962 1.931231123112311 0.8864671388148847 5.452949235931327
963 1.933230323032303 0.8755656031386905 5.38207980894597
964 1.935229522952295 0.8648057496152552 5.312192643726805
965 1.9372287228722869 0.8541856145069346 5.243273210213673
966 1.939227922792279 0.8437032631245782 5.175307207293437
967 1.941227122712271 0.8333567893698233 5.108280558967845
968 1.943226322632263 0.8231443152850382 5.042179410589927
969 1.945225522552255 0.8130639906108016 4.976990125166832
970 1.947224722472247 0.8031139923507672 4.9126992797275255
971 1.949223922392239 0.7932925243437913 4.849293661754942
972 1.951223122312231 0.7835978168431932 4.786760265682159
973 1.953222322232223 0.7740281261030206 4.725086289448611
974 1.955221522152215 0.7645817339711998 4.664259131117325
975 1.9572207220722069 0.7552569474894482 4.604266385553574
976 1.959219921992199 0.7460520984998267 4.545095841160067
977 1.961219121912191 0.7369655432578236 4.486735476668954
978 1.963218321832183 0.7279956620518419 4.429173457992531
979 1.965217521752175 0.7191408588289926 4.372398135126583
980 1.967216721672167 0.7103995608270744 4.316398039110395
981 1.969215921592159 0.7017702182126314 4.261161879037276
982 1.971215121512151 0.6932513037249872 4.206678539120117
983 1.973214321432143 0.6848413123261463 4.152937075805326
984 1.975213521352135 0.6765387608564646 4.09992671493985
985 1.9772127212721269 0.6683421876959839 4.0476368489860075
986 1.9792119211921189 0.6602501524313344 3.996057034284693
987 1.981211121112111 0.6522612355281082 3.945176988366395
988 1.983210321032103 0.6443740380086119 3.8949865873100893
989 1.985209520952095 0.6365871811348918 3.845475863147383
990 1.987208720872087 0.6288993060969564 3.7966350013080903
991 1.989207920792079 0.6213090737061026 3.748454338117125
992 1.991207120712071 0.6138151640932452 3.700924358329205
993 1.993206320632063 0.6064162764121771 3.6540356927075988
994 1.995205520552055 0.5991111285476682 3.6077791156451857
995 1.997204720472047 0.5918984568283217 3.5621455428262805
996 1.9992039203920389 0.5847770157441036 3.5171260289293844
997 2.001203120312031 0.5777455776684662 3.472711765367701
998 2.003202320232023 0.5708029325849872 3.4288940780692796
999 2.005201520152015 0.5639478878184508 3.385664425300687
1000 2.007200720072007 0.5571792677702693 3.3430143955132356
1001 2.0091999199919988 0.5504959136582279 3.30093570524844
1002 2.0111991199119905 0.5438966832603973 3.2594201970543626
1003 2.0131983198319827 0.5373804506632253 3.2184598374622366
1004 2.015197519751975 0.5309461060136726 3.1780467149738527
1005 2.0171967196719667 0.5245925552753669 3.138173038107235
1006 2.019195919591959 0.5183187199886612 3.0988311334513785
1007 2.0211951195119506 0.5121235370345972 3.0600134437783906
1008 2.023194319431943 0.5060059584026204 3.0217125261642153
1009 2.0251935193519346 0.49996495096207483 2.9839210501641364
1010 2.027192719271927 0.49399949623732364 2.946631795997095
1011 2.0291919191919185 0.4881085901865211 2.90983765278263
1012 2.0311911191119107 0.48229124298388776 2.8735316167864324
1013 2.0331903190319025 0.47654647880551454 2.8377067897164427
1014 2.0351895189518947 0.4708733356185521 2.80235637702747
1015 2.037188718871887 0.46527086497380915 2.7674736862745886
1016 2.0391879187918787 0.4597381318016297 2.7330521254743
1017 2.041187118711871 0.45427421421104697 2.699085201513252
1018 2.0431863186318626 0.44887820329213074 2.6655665185647237
1019 2.045185518551855 0.44354920292148226 2.632489776549758
1020 2.0471847184718466 0.43828632957082486 2.599848769607041
1021 2.0491839183918388 0.43308871211863464 2.567637384605749
1022 2.0511831183118305 0.427955491664763 2.5358495996653656
1023 2.0531823182318227 0.42288582134799974 2.504479482719359
1024 2.0551815181518145 0.4178788661665262 2.47352119008343
1025 2.0571807180718067 0.4129338028012124 2.442968965067043
1026 2.059179917991799 0.40804981944170693 2.4128171365897924
1027 2.0611791179117906 0.4032261156152819 2.3830601178384323
1028 2.063178317831783 0.3984619020183627 2.3536924049292662
1029 2.0651775177517746 0.3937564003507429 2.3247085756097996
1030 2.067176717671767 0.3891088431523786 2.296103287965457
1031 2.0691759175917586 0.38451847364278524 2.267871279163959
1032 2.0711751175117508 0.37998454556292804 2.2400073642048444
1033 2.0731743174317425 0.3755063230196288 2.2125064347054506
1034 2.0751735173517347 0.3710830803323834 2.1853634576914116
1035 2.0771727172717265 0.36671410188261383 2.1585734744227953
1036 2.0791719171917187 0.3623986819652505 2.132131599224471
1037 2.081171117111711 0.3581361246426681 2.1060330183507325
1038 2.0831703170317026 0.3539257436008813 2.0802729888540594
1039 2.085169516951695 0.34976686200800233 2.0548468374870423
1040 2.0871687168716866 0.3456588123749029 2.0297499596084942
1041 2.089167916791679 0.34160093641804945 2.0049778181204494
1042 2.0911671167116705 0.3375925849244778 1.9805259424129904
1043 2.0931663166316627 0.3336331176188633 1.9563899273295835
1044 2.0951655165516545 0.3297219030326733 1.9325654321547598
1045 2.0971647164716467 0.3258583183753298 1.9090481796068777
1046 2.0991639163916385 0.3220417494073993 1.8858339548614873
1047 2.1011631163116307 0.31827159031572166 1.862918604576387
1048 2.103162316231623 0.31454724359050057 1.84029803594676
1049 2.1051615161516146 0.3108681199042748 1.8179682157619055
1050 2.107160716071607 0.30723363799277525 1.7959251694912797
1051 2.1091599159915986 0.3036432245376171 1.7741649803718023
1052 2.1111591159115908 0.30009631405080484 1.7526837885230258
1053 2.1131583158315825 0.29659234876101875 1.7314777900647222
1054 2.1151575157515747 0.2931307785016531 1.7105432362606081
1055 2.1171567156715665 0.28971106060057844 1.68987643266388
1056 2.1191559155915587 0.2863326597716001 1.6694737382890807
1057 2.1211551155115504 0.28299504800758424 1.6493315647853577
1058 2.1231543154315426 0.27969770447522474 1.6294463756345317
1059 2.125153515351535 0.2764401154114246 1.609814685351518
1060 2.1271527152715266 0.2732217740212683 1.5904330587079247
1061 2.129151915191519 0.27004218037754646 1.5712981099581123
1062 2.1311511151115106 0.266900841321835 1.5524065020879754
1063 2.1331503150315028 0.26379727036706535 1.5337549460657531
1064 2.1351495149514945 0.26073098760160374 1.5153402001150156
1065 2.1371487148714867 0.25770151959477283 1.4971590689890797
1066 2.1391479147914785 0.25470839930383493 1.4792084032678687
1067 2.1411471147114707 0.25175116598237 1.4614850986550911
1068 2.1431463146314624 0.24882936509006962 1.4439860952978316
1069 2.1451455145514546 0.24594254820388034 1.4267083771059708
1070 2.147144714471447 0.24309027293051788 1.4096489710935691
1071 2.1491439143914386 0.24027210282029116 1.392804946720175
1072 2.151143114311431 0.23748760728224344 1.3761734152527763
1073 2.1531423142314225 0.2347363615005753 1.3597515291283362
1074 2.1551415141514147 0.23201794635233267 1.343536481336202
1075 2.1571407140714065 0.22933194832633932 1.3275255048004442
1076 2.1591399139913987 0.22667795944335467 1.3117158717820399
1077 2.1611391139113905 0.2240555771774361 1.2961048932811285
1078 2.1631383138313827 0.22146440437848697 1.2806899184576421
1079 2.1651375137513744 0.2189040491959722 1.2654683340526238
1080 2.1671367136713666 0.21637412500378153 1.250437563827504
1081 2.169135913591359 0.21387425032622234 1.2355950680031293
1082 2.1711351135113506 0.21140404876512828 1.2209383427172233
1083 2.173134313431343 0.2089631489280526 1.2064649194809303
1084 2.1751335133513345 0.20655118435755346 1.192172364653258
1085 2.1771327132713267 0.20416779346152175 1.1780582789149248
1086 2.1791319131913185 0.2018126194445694 1.1641202967591844
1087 2.1811311131113107 0.19948531024042715 1.1503560859823299
1088 2.1831303130313024 0.19718551844536925 1.1367633471903493
1089 2.1851295129512947 0.19491290125261623 1.1233398133055867
1090 2.1871287128712864 0.19266712038773215 1.110083249088713
1091 2.1891279127912786 0.1904478420449693 1.0969914506608858
1092 2.191127112711271 0.18825473682457594 1.0840622450408268
1093 2.1931263126312626 0.18608747967102424 1.071293489681536
1094 2.1951255125512548 0.18394574981216474 1.0586830720221996
1095 2.1971247124712465 0.18182923069928134 1.0462289090392127
1096 2.1991239123912387 0.17973760994803661 1.0339289468119066
1097 2.2011231123112305 0.1776705792802931 1.0217811600887683
1098 2.2031223122312227 0.17562783446679409 1.009783551863255
1099 2.2051215121512144 0.17360907527070008 0.9979341529583736
1100 2.2071207120712066 0.1716140053919482 0.9862310216119033
1101 2.2091199119911984 0.1696423324124483 0.9746722430754166
1102 2.2111191119111906 0.1676937677420733 0.9632559292121143
1103 2.213118311831183 0.16576802656546044 0.9519802181079718
1104 2.2151175117511746 0.16386482778958525 0.9408432736828068
1105 2.2171167116711668 0.16198389399211338 0.9298432853125475
1106 2.2191159115911585 0.16012495137051166 0.9189784674527336
1107 2.2211151115111507 0.1582877296919056 0.9082470592727259
1108 2.2231143114311425 0.15647196224367482 0.8976473242901055
1109 2.2251135113511347 0.15467738578477283 0.887177550016926
1110 2.2271127112711264 0.1529037404977605 0.8768360476049076
1111 2.2291119111911186 0.1511507699415425 0.8666211515025953
1112 2.2311111111111104 0.14941822100479535 0.8565312191116928
1113 2.2331103110311026 0.14770584386007643 0.84656463045451
1114 2.235109510951095 0.14601339191860355 0.836719787841006
1115 2.2371087108710865 0.1443406217856963 0.8269951155463678
1116 2.2391079107910787 0.14268729321686205 0.8173890594882937
1117 2.2411071107110705 0.14105316907453092 0.807900086914322
1118 2.2431063106310627 0.1394380152854101 0.798526686089103
1119 2.2451055105510545 0.1378416007984695 0.7892673659913513
1120 2.2471047104710467 0.13626369754352713 0.7801206560103519
1121 2.2491039103910384 0.13470408039044732 0.771085105652615
1122 2.2511031103110306 0.13316252710891943 0.7621592842472567
1123 2.2531023102310224 0.13163881832883134 0.7533417806616182
1124 2.2551015101510146 0.13013273750120585 0.7446312030159541
1125 2.2571007100710068 0.12864407085971266 0.7360261784073675
1126 2.2590999099909985 0.12717260738272881 0.7275253526330326
1127 2.2610991099109907 0.12571813875595256 0.7191273899230037
1128 2.2630983098309825 0.12428045933555461 0.710830972671465
1129 2.2650975097509747 0.12285936611186184 0.7026348011776968
1130 2.2670967096709664 0.12145465867356396 0.6945375933854856
1131 2.2690959095909586 0.12006613917243612 0.6865380846319241
1132 2.2710951095109504 0.11869361228856869 0.6786350273947648
1133 2.2730943094309426 0.11733688519609717 0.6708271910486426
1134 2.275093509350935 0.11599576752942413 0.6631133616202501
1135 2.2770927092709266 0.11467007134992746 0.6554923415517074
1136 2.2790919091909188 0.11335961111314179 0.6479629494632615
1137 2.2810911091109105 0.11206420363641721 0.6405240199237253
1138 2.2830903090309027 0.11078366806703262 0.6331744032202768
1139 2.2850895089508945 0.10951782585077381 0.6259129651359027
1140 2.2870887088708867 0.10826650070095203 0.618738586725946
1141 2.2890879087908784 0.10702951856787371 0.6116501641023507
1142 2.2910871087108706 0.10580670760873707 0.6046466082168911
1143 2.2930863086308624 0.10459789815796658 0.5977268446518454
1144 2.2950855085508546 0.10340292269796142 0.5908898134096396
1145 2.297084708470847 0.10222161583026866 0.5841344687099933
1146 2.2990839083908385 0.10105381424715922 0.5774597787856002
1147 2.3010831083108307 0.09989935670361233 0.5708647256854702
1148 2.3030823082308225 0.09875808398969582 0.564348305076673
1149 2.3050815081508147 0.0976298389033388 0.5579095260535049
1150 2.3070807080708065 0.09651446622349 0.5515474109452272
1151 2.3090799079907987 0.0954118126836564 0.5452609951306849
1152 2.3110791079107904 0.0943217269458165 0.5390493268524432
1153 2.3130783078307826 0.09324405957470125 0.5329114670353576
1154 2.3150775077507744 0.09217866301244147 0.5268464891082951
1155 2.3170767076707666 0.091125391553568 0.5208534788264664
1156 2.3190759075907588 0.09008410132037047 0.5149315340992487
1157 2.3210751075107505 0.08905465023859802 0.5090797648173304
1158 2.3230743074307427 0.08803689801350556 0.5032972926859706
1159 2.3250735073507345 0.0870307061062357 0.4975832510570224
1160 2.3270727072707267 0.08603593771053304 0.49193678476728403
1161 2.3290719071907184 0.08505245772978529 0.4863570499752912
1162 2.3310711071107106 0.08408013275438704 0.4808432140045347
1163 2.3330703070307024 0.0831188310394206 0.475394455185118
1164 2.3350695069506946 0.08216842248264977 0.47000996270150264
1165 2.3370687068706864 0.0812287786028216 0.46468893643882125
1166 2.3390679067906786 0.08029977251827185 0.4594305868351123
1167 2.3410671067106708 0.07938127892582912 0.45423413473214885
1168 2.3430663066306625 0.07847317408001508 0.4490988112320482
1169 2.3450655065506547 0.07757533577253138 0.44402385755239576
1170 2.3470647064706465 0.0766876433120382 0.4390085248869994
1171 2.3490639063906387 0.07580997750420822 0.4340520742655263
1172 2.3510631063106304 0.07494222063206432 0.4291537764180429
1173 2.3530623062306226 0.07408425643658502 0.4243129116387744
1174 2.3550615061506144 0.07323597009758531 0.41952876965476094
1175 2.3570607060706066 0.07239724821485709 0.4148006494935119
1176 2.3590599059905983 0.07156797878957713 0.410127859355431
1177 2.3610591059105905 0.07074805120596718 0.4055097164853931
1178 2.3630583058305827 0.06993735621321352 0.40094554704885965
1179 2.3650575057505745 0.06913578590763239 0.39643468600717335
1180 2.3670567056705667 0.06834323371508472 0.39197647699726956
1181 2.3690559055905585 0.06755959437363313 0.3875702722106621
1182 2.3710551055105507 0.06678476391643821 0.3832154322765516
1183 2.3730543054305424 0.06601863965489133 0.37891132614430567
1184 2.3750535053505346 0.06526112016197949 0.37465733097011095
1185 2.3770527052705264 0.06451210525587972 0.37045283200259416
1186 2.3790519051905186 0.06377149598377925 0.36629722247301133
1187 2.3810511051105103 0.063039194605918 0.3621899034840233
1188 2.3830503050305025 0.06231510457985076 0.35813028390300994
1189 2.3850495049504947 0.06159913054492508 0.3541177802542532
1190 2.3870487048704865 0.06089117830697312 0.3501518166151138
1191 2.3890479047904787 0.06019115482321106 0.346231824511428
1192 2.3910471047104704 0.05949896818734921 0.3423572428166336
1193 2.3930463046304626 0.05881452761490145 0.3385275176501908
1194 2.3950455045504544 0.05813774342870018 0.3347421022796368
1195 2.3970447044704466 0.05746852704460471 0.3310004570218079
1196 2.3990439043904384 0.056806790957409474 0.3273020491478576
1197 2.4010431043104306 0.056152448726939794 0.3236463527871661
1198 2.4030423042304223 0.05550541496434207 0.3200328488351824
1199 2.4050415041504145 0.054865605318555895 0.31646102486003824
1200 2.4070407040704067 0.05423293646297506 0.31293037501298565
1201 2.4090399039903985 0.053607326082286105 0.3094403999377714
1202 2.4110391039103907 0.05298869285948816 0.30599060668351963
1203 2.4130383038303824 0.05237695646308824 0.3025805086168356
1204 2.4150375037503746 0.05177203753447026 0.2992096253369964
1205 2.4170367036703664 0.05117385767543577 0.29587748259064955
1206 2.4190359035903586 0.05058233943591305 0.2925836121894331
1207 2.4210351035103503 0.04999740630183304 0.289327551927291
1208 2.4230343034303425 0.04941898268316846 0.28610884549962806
1209 2.4250335033503343 0.04884699390213667 0.28292704242420286
1210 2.4270327032703265 0.04828136618155857 0.2797816979615889
1211 2.4290319031903187 0.04772202663337848 0.2766723730387467
1212 2.4310311031103105 0.04716890324733549 0.2735986341716136
1213 2.4330303030303027 0.046621924879789625 0.27056005339089423
1214 2.4350295029502944 0.046081021242697584 0.26755620816677916
1215 2.4370287028702866 0.04554612289273714 0.264586681336917
1216 2.4390279027902784 0.045017161220577494 0.26165106103314295
1217 2.4410271027102706 0.04449406844029416 0.2587489406115782
1218 2.4430263026302623 0.04397677757892554 0.25587991858138914
1219 2.4450255025502545 0.04346522246617002 0.2530435985368302
1220 2.4470247024702463 0.04295933772422076 0.250239589088082
1221 2.4490239023902385 0.042459058757736985 0.24746750379508983
1222 2.4510231023102307 0.04196432174394917 0.2447269611004481
1223 2.4530223022302224 0.04147506362289733 0.2420175842650537
1224 2.4550215021502146 0.04099122208779793 0.2393390013028673
1225 2.4570207020702064 0.04051273557554233 0.23669084491839235
1226 2.4590199019901986 0.040039543257318594 0.2340727524432367
1227 2.4610191019101904 0.039571585029361825 0.23148436577532547
1228 2.4630183018301826 0.03910880150382435 0.2289253313173424
1229 2.4650175017501743 0.03865113399977063 0.22639529991750912
1230 2.4670167016701665 0.03819852453428894 0.2238939268097748
1231 2.4690159015901583 0.037750915813724195 0.22142087155633863
1232 2.4710151015101505 0.03730825122502416 0.21897579798940428
1233 2.4730143014301427 0.036870474827203514 0.21655837415531987
1234 2.4750135013501344 0.036437531342918654 0.214168272258015
1235 2.4770127012701266 0.03600936615015556 0.2118051686046364
1236 2.4790119011901184 0.03558592527402733 0.2079740388752954
1237 2.4810111011101106 0.03517014359214739 0.20594291175380158
1238 2.4830103010301023 0.03475842253944632 0.20414251991353594
1239 2.4850095009500945 0.03435030082996817 0.2023308043774466
1240 2.4870087008700863 0.03394580110204491 0.20050998807227427
1241 2.4890079007900785 0.033544941549933184 0.1986823903595984
1242 2.4910071007100703 0.033147735731022504 0.19685030166251014
1243 2.4930063006300625 0.03275419262368837 0.19501590796937437
1244 2.4950055005500547 0.032364316836078794 0.19318124853652915
1245 2.4970047004700464 0.03197810889946066 0.19134819538360645
1246 2.4990039003900386 0.0315955656025591 0.18951844681817312
1247 2.5010031003100304 0.031216680338843245 0.18769352974783932
1248 2.5030023002300226 0.03084144344918831 0.18587480725997466
1249 2.5050015001500143 0.030469842549385687 0.18406348913581583
1250 2.5070007000700065 0.03010186283663188 0.1822606437667046
1251 2.5089998999899983 0.029737487372195837 0.18046721049150918
1252 2.5109990999099905 0.029376697339419996 0.1786840117388756
1253 2.5129982998299822 0.02901947227744783 0.17691176460978628
1254 2.5149974997499744 0.028665790291794266 0.17515109169590146
1255 2.5169966996699666 0.028315628243289273 0.1734025310408449
1256 2.5189958995899584 0.027968961917106048 0.17166654521645838
1257 2.5209950995099506 0.027625766173643967 0.1699435295332048
1258 2.5229942994299424 0.027286015082998067 0.16823381942521798
1259 2.5249934993499346 0.02694968204466319 0.1665376970688002
1260 2.5269926992699263 0.026616739894007632 0.16485539729496732
1261 2.5289918991899185 0.02628716099692525 0.163187112862857
1262 2.5309910991099103 0.02596091733394614 0.16153299915450856
1263 2.5329902990299025 0.025637980574960348 0.15989317835292774
1264 2.5349894989498942 0.025318322145589947 0.15826774315669373
1265 2.5369886988698864 0.02500191328613374 0.1566567600830978
1266 2.5389878987898786 0.024688725103909372 0.15506027240551712
1267 2.5409870987098704 0.024378728619722363 0.1534783027652237
1268 2.5429862986298626 0.02407189480911359 0.15191085549626532
1269 2.5449854985498543 0.023768194638959576 0.15035791869417942
1270 2.5469846984698465 0.02346759909993598 0.14881946605979762
1271 2.5489838983898383 0.023170079235296015 0.14729545854180895
1272 2.5509830983098305 0.022875606166364016 0.1457858458029923
1273 2.5529822982298223 0.022584151115098743 0.14429056752813627
1274 2.5549814981498145 0.022295685424040864 0.14280955459357886
1275 2.556980698069806 0.022010180573923323 0.1413427301119013
1276 2.5589798979897984 0.02172760819919213 0.1398900103676444
1277 2.5609790979097906 0.021447940101657428 0.13845130565437402
1278 2.5629782978297824 0.02117114826247045 0.13702652102562363
1279 2.5649774977497746 0.020897204852599213 0.1356155569675011
1280 2.5669766976697663 0.020626082241960147 0.13421831000315385
1281 2.5689758975897585 0.020357753007340353 0.13283467323459414
1282 2.5709750975097503 0.02009218993923762 0.13146453683046394
1283 2.5729742974297425 0.019829366047724346 0.13010778846361606
1284 2.5749734973497342 0.01956925456743758 0.12876431370542926
1285 2.5769726972697264 0.019311828961779836 0.12743399637985775
1286 2.578971897189718 0.019057062926412995 0.12611671888274772
1287 2.5809710971097104 0.018804930392112926 0.12481236246856901
1288 2.5829702970297026 0.018555405527051726 0.12352080750928045
1289 2.5849694969496944 0.018308462738561855 0.12224193372664761
1290 2.5869686968696866 0.01806407667443585 0.12097562040212659
1291 2.5889678967896783 0.017822222223806965 0.11972174656498738
1292 2.5909670967096705 0.017582874517652915 0.11848019116239202
1293 2.5929662966296623 0.017346008928960453 0.11725083321150993
1294 2.5949654965496545 0.017111601072584984 0.1160335519370272
1295 2.5969646964696462 0.01687962680483612 0.11482822689383293
1296 2.5989638963896384 0.016650062222817123 0.11363473807786185
1297 2.60096309630963 0.016422883663543577 0.11245296602457698
1298 2.6029622962296224 0.016198067702864357 0.11128279189785184
1299 2.6049614961496146 0.015975591154205663 0.11012409756854126
1300 2.6069606960696063 0.01575543106715747 0.10897676568524949
1301 2.6089598959895985 0.015537564725918511 0.10784067973641165
1302 2.6109590959095903 0.01532196964761762 0.10671572410605192
1303 2.6129582958295825 0.015108623580522892 0.10560178412223559
1304 2.6149574957495743 0.014897504502154732 0.1044987461003534
1305 2.6169566956695665 0.01468859061731162 0.10340649738022732
1306 2.618955895589558 0.014481860356022442 0.10232492635902857
1307 2.6209550955095504 0.014277292371432264 0.10125392251894859
1308 2.622954295429542 0.01407486553763353 0.10019337645147557
1309 2.6249534953495344 0.013874558947447992 0.0991431798771674
1310 2.6269526952695266 0.013676351910169787 0.09810322566275982
1311 2.6289518951895183 0.013480223949273864 0.09707340783432866
1312 2.6309510951095105 0.013286154800098104 0.09605362158838342
1313 2.6329502950295023 0.01309412440750369 0.09504376329958712
1314 2.6349494949494945 0.012904112923519397 0.09404373052675875
1315 2.6369486948694862 0.012716100704974575 0.09305342201606699
1316 2.6389478947894784 0.012530068311125053 0.0920727377028222
1317 2.64094709470947 0.012345996501276149 0.09110157871087242
1318 2.6429462946294624 0.01216386623240621 0.09013984735086623
1319 2.644945494549454 0.011983658656794289 0.08918744711662659
1320 2.6469446944694464 0.01180535511965442 0.08824428268022874
1321 2.6489438943894386 0.011628937156780338 0.08731025988611726
1322 2.6509430943094303 0.011454386492201553 0.08638528574354445
1323 2.6529422942294225 0.011281685035854555 0.08546926841862847
1324 2.6549414941494143 0.011110814881270279 0.08456211722483901
1325 2.6569406940694065 0.01094175830328001 0.0836637426132651
1326 2.6589398939893982 0.01077449775574136 0.08277405616154976
1327 2.6609390939093904 0.010609015869285759 0.08189297056273095
1328 2.662938293829382 0.01044529544908886 0.08102039961290369
1329 2.6649374937493744 0.010283319472665007 0.0801562581989353
1330 2.666936693669366 0.010123071087686857 0.0793004622851411
1331 2.6689358935893583 0.009964533609831058 0.07845292890010046
1332 2.6709350935093505 0.009807690520650824 0.07761357612260754
1333 2.6729342934293423 0.009652525465476233 0.07678232306777856
1334 2.6749334933493345 0.009499022251342314 0.07595908987247138
1335 2.6769326932693263 0.009347164844946623 0.07514379768093973
1336 2.6789318931893185 0.009196937370634978 0.07433636862980435
1337 2.68093109310931 0.009048324108417796 0.07353672583342472
1338 2.6829302930293024 0.008901309492015124 0.07274479336865189
1339 2.684929492949294 0.008755878106932699 0.07196049625998632
1340 2.6869286928692864 0.008612014688567135 0.07118376046423029
1341 2.6889278927892786 0.008469704120342302 0.07041451285560381
1342 2.6909270927092703 0.00832893143187512 0.06965268121036798
1343 2.6929262926292625 0.00818968179717211 0.06889819419200646
1344 2.6949254925492543 0.008051940532855874 0.06815098133593175
1345 2.6969246924692465 0.00791569309642169 0.06741097303479641
1346 2.6989238923892382 0.007780925084523958 0.0666781005233726
1347 2.7009230923092304 0.0076476222312924 0.06595229586407013
1348 2.702922292229222 0.007515770406677678 0.06523349193206436
1349 2.7049214921492144 0.007385355614826283 0.06452162240105361
1350 2.706920692069206 0.007256363992484359 0.06381662172871326
1351 2.7089198919891984 0.0071287818074301425 0.06311842514277038
1352 2.7109190919091906 0.007002595456934682 0.0624269686267715
1353 2.7129182918291823 0.006877791466250713 0.06174218890655992
1354 2.7149174917491745 0.006754356487128575 0.061064023436414504
1355 2.7169166916691663 0.00663227729636012 0.06039241038589389
1356 2.7189158915891585 0.006511540794348505 0.059727288626446884
1357 2.7209150915091502 0.006392134003705188 0.05906859771863094
1358 2.7229142914291424 0.0062740440678720494 0.05841627789919061
1359 2.724913491349134 0.006157258249769771 0.05777027006871637
1360 2.7269126912691264 0.006041763930470466 0.057130515779184786
1361 2.728911891189118 0.005927548607895632 0.056496957222067094
1362 2.7309110911091103 0.0058145998955374725 0.055869537216345244
1363 2.7329102910291025 0.005702905521204554 0.05524819919712364
1364 2.7349094909490943 0.0055924533257899756 0.05463288720408505
1365 2.7369086908690865 0.005483231262062626 0.05402354587059575
1366 2.7389078907890783 0.00537522739348046 0.053420120412664314
1367 2.7409070907090705 0.005268429893025488 0.05282255661850052
1368 2.742906290629062 0.005162827042060021 0.052230800837976515
1369 2.7449054905490544 0.00505840722920361 0.05164479997267949
1370 2.746904690469046 0.004955158949230239 0.051064501465829214
1371 2.7489038903890384 0.004853070801985312 0.05048985329281803
1372 2.75090309030903 0.004752131491321914 0.049920803951615446
1373 2.7529022902290223 0.004652329824055898 0.04935730245377116
1374 2.7549014901490145 0.004553654708939288 0.048799298315298036
1375 2.7569006900690063 0.0044560951556516905 0.04824674154810324
1376 2.7588998899889985 0.004359640273808838 0.04769958265142103
1377 2.7608990899089902 0.004264279271988477 0.04715777260353404
1378 2.7628982898289824 0.004170001456772481 0.046621262853845845
1379 2.764897489748974 0.004076796231805158 0.046090005314895634
1380 2.7668966896689664 0.003984653096867179 0.045563952354941116
1381 2.768895889588958 0.003893561646964672 0.045043056790359866
1382 2.7708950895089504 0.0038035115714331806 0.044527271878666196
1383 2.772894289428942 0.0037144926530559 0.04401655131135053
1384 2.7748934893489343 0.0036264947671959154 0.04351084920723783
1385 2.7768926892689265 0.003539507880942013 0.04301012010577785
1386 2.7788918891889183 0.003453522052267706 0.04251431896077662
1387 2.7808910891089105 0.0033685274292027984 0.04202340113404646
1388 2.7828902890289022 0.003284514249017831 0.0415373223895291
1389 2.7848894889488944 0.0032014728374199944 0.04105603888729863
1390 2.786888688868886 0.0031193936077613285 0.040579507178037134
1391 2.7888878887888784 0.0030382670602576737 0.04010768419738881
1392 2.79088708870887 0.0029580837812191994 0.03964052726076814
1393 2.7928862886288623 0.002878834442291023 0.03917799405803125
1394 2.794885488548854 0.0028005097997047695 0.038720042648616906
1395 2.7968846884688463 0.00272310069353956 0.03826663145651912
1396 2.7988838883888385 0.002646598046993316 0.037817719265731575
1397 2.8008830883088303 0.0025709928656629947 0.03737326521551879
1398 2.8028822882288225 0.002496276236834282 0.03693322879611471
1399 2.804881488148814 0.0024224393287800524 0.0364975698443107
1400 2.8068806880688064 0.0023494733900673967 0.03606624853939272
1401 2.808879887988798 0.00227736974887304 0.035639225398990705
1402 2.8108790879087904 0.0022061198123067938 0.03521646127527789
1403 2.812878287828782 0.0021357150657428654 0.034797917351036066
1404 2.8148774877487743 0.002066147072158779 0.034383555136110716
1405 2.816876687668766 0.001997407471481634 0.033973336463710486
1406 2.8188758875887583 0.001929487979941516 0.033567223487029424
1407 2.8208750875087505 0.0018623803894318865 0.0331651786758111
1408 2.8228742874287422 0.0017960765668766927 0.03276716481315564
1409 2.8248734873487344 0.0017305684536038607 0.03237314499224825
1410 2.826872687268726 0.0016658480647254764 0.031983082613403144
1411 2.8288718871887184 0.001601907488523657 0.03159694138093032
1412 2.83087108710871 0.0015387388858429168 0.031214685300375092
1413 2.8328702870287024 0.0014763344894878252 0.030836278675540098
1414 2.834869486948694 0.001414686603626842 0.03046168610588301
1415 2.8368686868686863 0.001353787603201133 0.030090872483712075
1416 2.838867886788678 0.0012936299333392138 0.029723802991690758
1417 2.8408670867086703 0.0012342061087763617 0.02936044310021109
1418 2.8428662866286625 0.0011755087132794841 0.029000758565010814
1419 2.8448654865486542 0.0011175303990766142 0.028644715424675712
1420 2.8468646864686464 0.0010602638862914032 0.028292279998397694
1421 2.848863886388638 0.0010037019623822222 0.02794341888356937
1422 2.8508630863086304 0.0009478374815858817 0.027598098953660454
1423 2.852862286228622 0.0008926633643657992 0.02725628735593344
1424 2.8548614861486143 0.0008381725968645326 0.02691795150940014
1425 2.856860686068606 0.0007843582303605979 0.02658305910264454
1426 2.8588598859885983 0.000731213380729443 0.026251578091870162
1427 2.86085908590859 0.0006787312279085188 0.02592347669881287
1428 2.8628582858285823 0.0006269050153663324 0.02559872340885816
1429 2.8648574857485745 0.0005757280495754407 0.02527728696904426
1430 2.866856685668566 0.0005251936994893188 0.02495913638624648
1431 2.8688558855885584 0.0004752953960228604 0.02464424092527485
1432 2.87085508550855 0.0004260266315367933 0.024332570107055883
1433 2.8728542854285424 0.0003773809593255626 0.02402409370689073
1434 2.874853485348534 0.0003293519931088722 0.023718781752617896
1435 2.8768526852685263 0.000281933406526726 0.02341660452296128
1436 2.878851885188518 0.00023511893263794323 0.0231175325457437
1437 2.8808510851085103 0.00018890236342207533 0.02282153659627499
1438 2.882850285028502 0.00014327754928471342 0.02252858769561927
1439 2.8848494849484942 9.82383985660941e-05 0.022238657109025405
1440 2.8868486848684864 5.3778877052996525e-05 0.021951716344233516
1441 2.888847884788478 9.893007493923147e-06 0.021667737149944803
1442 2.8908470847084704 -3.342513088265853e-05 0.021386691514164533
1443 2.892846284628462 -7.618140284666464e-05 0.021108551662711816
1444 2.8948454845484544 -0.00011838161764190934 0.020833290057579792
1445 2.896844684468446 -0.00016003152945818792 0.02056087939548121
1446 2.8988438843884383 -0.00020113683790060324 0.020291292606246885
1447 2.90084308430843 -0.00024170318845554133 0.020024502851381853
1448 2.9028422842284223 -0.00028173617295390753 0.019760483522494578
1449 2.904841484148414 -0.0003212413300310771 0.019499208239875686
1450 2.9068406840684062 -0.00036022414558414784 0.019240650850939813
1451 2.9088398839883984 -0.0003986900532259446 0.018984785428836498
1452 2.91083908390839 -0.0004366444347363352 0.01873158627090222
1453 2.9128382838283824 -0.0004740926205104499 0.01848102789728085
1454 2.914837483748374 -0.0005110398900040592 0.01823308504940506
1455 2.9168366836683663 -0.0005474914721760408 0.017987732688621867
1456 2.918835883588358 -0.0005834525459279667 0.01774494599468811
1457 2.9208350835083503 -0.0006189282405408131 0.017504700364405615
1458 2.922834283428342 -0.0006539236361088125 0.0172669714101328
1459 2.9248334833483343 -0.0006884437639704576 0.017031734958425637
1460 2.926832683268326 -0.0007224936071366629 0.016798967048562388
1461 2.928831883188318 -0.0007560781007161005 0.016568643931189255
1462 2.9308310831083104 -0.0007892021323377133 0.01634074206684897
1463 2.932830283028302 -0.0008218705425703637 0.016115238124647643
1464 2.9348294829482944 -0.0008540881253398145 0.015892108980779196
1465 2.936828682868286 -0.0008858596283426886 0.0156713317171948
1466 2.9388278827882783 -0.0009171897534578756 0.015452883620143968
1467 2.94082708270827 -0.0009480831571549094 0.01523674217884387
1468 2.9428262826282623 -0.0009785444508997958 0.015022885084022863
1469 2.944825482548254 -0.0010085782015578197 0.014811290226599216
1470 2.9468246824682462 -0.001038188931793818 0.014601935696226637
1471 2.948823882388238 -0.0010673811204694392 0.014394799779976465
1472 2.95082308230823 -0.0010961592030378719 0.01418986096089026
1473 2.9528222822282224 -0.0011245275719355841 0.013987097916659568
1474 2.954821482148214 -0.0011524905769714868 0.013786489518191305
1475 2.9568206820682064 -0.0011800525257132282 0.013588014828284102
1476 2.958819881988198 -0.0012072176838707805 0.013391653100195557
1477 2.9608190819081903 -0.0012339902756772548 0.013197383776329981
1478 2.962818281828182 -0.0012603744842669942 0.013005186486806677
1479 2.9648174817481743 -0.0012863744520509018 0.012815041048143802
1480 2.966816681668166 -0.001311994281089042 0.01262692746183985
1481 2.9688158815881582 -0.0013372380334604995 0.012440825913055495
1482 2.97081508150815 -0.0013621097316305114 0.012256716769200433
1483 2.972814281428142 -0.001386613358814864 0.012074580578619895
1484 2.9748134813481344 -0.0014107528593415802 0.011894398069184216
1485 2.976812681268126 -0.0014345321390098434 0.01171615014697823
1486 2.9788118811881183 -0.001457955065446299 0.011539817894911382
1487 2.98081108110811 -0.0014810254684585252 0.011365382571362078
1488 2.9828102810281023 -0.001503747140385873 0.01119282560886191
1489 2.984809480948094 -0.0015261238364475914 0.011022128612700246
1490 2.9868086808680863 -0.0015481592750882455 0.010853273359615565
1491 2.988807880788078 -0.0015698571383204376 0.010686241796419393
1492 2.99080708070807 -0.0015912210720648566 0.010521016038685774
1493 2.992806280628062 -0.0016122546864876291 0.010357578369381386
1494 2.994805480548054 -0.0016329615563350094 0.010195911237564692
1495 2.9968046804680464 -0.0016533452212653963 0.010035997257014082
1496 2.998803880388038 -0.0016734091861786563 0.00987781920494365
1497 3.0008030803080303 -0.001693156921542877 0.009721360020626688
1498 3.002802280228022 -0.001712591863718325 0.009566602804132816
1499 3.0048014801480143 -0.0017317174152789445 0.009413530814941088
1500 3.006800680068006 -0.0017505369453310147 0.00926212747069829
1501 3.0087998799879982 -0.0017690537898293922 0.009112376345844268
1502 3.01079907990799 -0.0017872712518909389 0.008964261170352242
1503 3.012798279827982 -0.0018051926021054963 0.008817765828391772
1504 3.014797479747974 -0.0018228210788441231 0.00867287435706102
1505 3.016796679667966 -0.001840159888564862 0.008529570945066083
1506 3.0187958795879584 -0.0018572122061158059 0.008387839931457933
1507 3.02079507950795 -0.0018739811750356802 0.00824766580432015
1508 3.0227942794279423 -0.0018904699078517995 0.008109033199517727
1509 3.024793479347934 -0.0019066814863754858 0.00797192689939911
1510 3.0267926792679263 -0.0019226189619949482 0.0078363318315481
1511 3.028791879187918 -0.001938285355965608 0.007702233067497098
1512 3.0307910791079102 -0.0019536836596979095 0.007569615821495618
1513 3.032790279027902 -0.001968816835042612 0.007438465449224485
1514 3.034789478947894 -0.001983687814573566 0.007308767446585088
1515 3.036788678867886 -0.0019982995018680175 0.007180507448424072
1516 3.038787878787878 -0.0020126547717844103 0.007053671227322469
1517 3.0407870787078704 -0.0020267564707377246 0.0069282446923478284
1518 3.042786278627862 -0.0020406074169723497 0.006804213887848087
1519 3.0447854785478543 -0.0020542104008325454 0.006681564992213635
1520 3.046784678467846 -0.0020675681850303987 0.006560284316688085
1521 3.0487838783878383 -0.0020806835049114476 0.006440358304139267
1522 3.05078307830783 -0.002093559068717801 0.006321773527889669
1523 3.052782278227822 -0.002106197557848967 0.006204516690492647
1524 3.054781478147814 -0.0021186016271201873 0.006088574622578465
1525 3.056780678067806 -0.0021307739050185127 0.00597393428164723
1526 3.058779877987798 -0.002142716993956418 0.005860582750925319
1527 3.06077907790779 -0.0021544334705231754 0.005748507238172259
1528 3.0627782778277823 -0.002165925885733804 0.005637695074554283
1529 3.064777477747774 -0.002177196765275791 0.0055281337134633155
1530 3.0667766776677663 -0.002188248609753453 0.005419810729401785
1531 3.068775877587758 -0.0021990838949300434 0.005312713816819576
1532 3.0707750775077503 -0.0022097050719675705 0.0052068307890165205
1533 3.072774277427742 -0.002220114567664383 0.0051021495769883705
1534 3.074773477347734 -0.0022303147846904864 0.00499865822834263
1535 3.076772677267726 -0.002240308101820655 0.0048963449061691314
1536 3.078771877187718 -0.0022500968741653226 0.004795197887964242
1537 3.08077107710771 -0.0022596834333992854 0.004695205564513895
1538 3.082770277027702 -0.0022690700879882085 0.004596356438840548
1539 3.0847694769476943 -0.002278259123412994 0.004498639125096299
1540 3.086768676867686 -0.0022872528023919585 0.004402042347526731
1541 3.0887678767876783 -0.002296053365100936 0.004306554939382925
1542 3.09076707670767 -0.0023046630293911906 0.00421216584189473
1543 3.0927662766276622 -0.0023130839910053005 0.004118864103208747
1544 3.094765476547654 -0.0023213184237908923 0.0040266388773569
1545 3.096764676467646 -0.0023293684799123417 0.003935479423240395
1546 3.098763876387638 -0.002337236290060413 0.003845375103590482
1547 3.10076307630763 -0.002344923963659851 0.0037563153839734946
1548 3.1027622762276224 -0.0023524335890749565 0.0036682898317795852
1549 3.104761476147614 -0.002359767233813157 0.0035812881152264605
1550 3.1067606760676063 -0.0023669269447265866 0.0034953000023752053
1551 3.108759875987598 -0.0023739147482116823 0.003410315360150324
1552 3.1107590759075903 -0.002380732650406843 0.003326324153366166
1553 3.112758275827582 -0.0023873826373881192 0.003243316443768849
1554 3.1147574757475742 -0.0023938666753630113 0.0031612823890750986
1555 3.116756675667566 -0.0024001867108623216 0.0030802122420306027
1556 3.118755875587558 -0.002406344670930148 0.0030000963494714733
1557 3.12075507550755 -0.002412342463311979 0.002920925151391425
1558 3.122754275427542 -0.002418181976640944 0.0028426891800167817
1559 3.1247534753475343 -0.0024238650806221963 0.002765379058902945
1560 3.126752675267526 -0.002429393626215502 0.002688985502019006
1561 3.1287518751875183 -0.0024347694458159985 0.002613499312852467
1562 3.13075107510751 -0.0024399943534331517 0.0025389113835209954
1563 3.1327502750275023 -0.002445070144867954 0.002465212693891139
1564 3.134749474947494 -0.002449998597888344 0.0023923943107045016
1565 3.136748674867486 -0.002454781472402894 0.002320447386710897
1566 3.138747874787478 -0.0024594205106327517 0.0022493631598152226
1567 3.14074707470747 -0.0024639174372818877 0.002179132952224414
1568 3.142746274627462 -0.002468273959705626 0.0021097481696074087
1569 3.144745474547454 -0.002472491768077509 0.0020412003002660923
1570 3.1467446744674463 -0.002476572535554489 0.001973480914302586
1571 3.148743874387438 -0.002480517918440468 0.0019065816628105552
1572 3.1507430743074303 -0.0024843295563482175 0.0018404942770586623
1573 3.152742274227422 -0.0024880090723596584 0.0017752105676966964
1574 3.1547414741474142 -0.002491558073184567 0.0017107224239526586
1575 3.156740674067406 -0.0024949781493176612 0.001647021812859933
1576 3.158739873987398 -0.002498270875194156 0.0015841007784673595
1577 3.16073907390739 -0.002501437809343727 0.0015219514410753207
1578 3.162738273827382 -0.002504480494542957 0.001460565996473131
1579 3.164737473747374 -0.0025074004579662486 0.0013999367151851154
1580 3.166736673667366 -0.002510199211335241 0.0013400559417181032
1581 3.1687358735873583 -0.0025128782510667087 0.0012809160938324956
1582 3.17073507350735 -0.002515439058419015 0.0012225096617966692
1583 3.1727342734273423 -0.0025178830996370684 0.0011648292076806208
1584 3.174733473347334 -0.0025202118260958676 0.001107867364616227
1585 3.1767326732673262 -0.0025224266744425703 0.0010516168361114438
1586 3.178731873187318 -0.0025245290667371863 0.000996070395331491
1587 3.18073107310731 -0.0025265204105918396 0.000941220884411127
1588 3.182730273027302 -0.002528402099308649 0.0008870612137672539
1589 3.184729472947294 -0.0025301755120162406 0.0008335843614153531
1590 3.186728672867286 -0.0025318420138048885 0.0007807833723009195
1591 3.188727872787278 -0.0025334029558603238 0.0007286513576301011
1592 3.1907270727072703 -0.0025348596755962 0.0006771814942111496
1593 3.192726272627262 -0.002536213496785247 0.0006263670238070667
1594 3.1947254725472543 -0.0025374657296891277 0.0005762012524814973
1595 3.196724672467246 -0.002538617671186988 0.0005266775499729192
1596 3.198723872387238 -0.0025396706049027554 0.0004777893490516398
1597 3.20072307230723 -0.0025406258013311524 0.0004295301449034975
1598 3.202722272227222 -0.0025414845179624777 0.0003818934945123201
1599 3.204721472147214 -0.002542247999406152 0.00033487301604072026
1600 3.206720672067206 -0.0025429174775130283 0.00028846238823737434
1601 3.208719871987198 -0.002543494171496513 0.0002426553498313885
1602 3.21071907190719 -0.0025439792880524816 0.00019744569894267092
1603 3.2127182718271823 -0.0025443740214780106 0.00015282729250052588
1604 3.214717471747174 -0.0025446795537889502 0.00010879404566265655
1605 3.2167166716671662 -0.0025448970548363346 6.533993124038066e-05
1606 3.218715871587158 -0.0025450276824216427 2.245897914114954e-05
1607 3.22071507150715 -0.0025450725824109448 -1.9854724198406193e-05
1608 3.222714271427142 -0.002545032888847916 -6.160703636341179e-05
1609 3.224713471347134 -0.002544909724065747 -0.00010280375950566395
1610 3.226712671267126 -0.0025447041987979686 -0.00014345064088884204
1611 3.228711871187118 -0.002544417412288181 -0.0001835533734187525
1612 3.23071107110711 -0.002544050452398728 -0.00022311759617805156
1613 3.232710271027102 -0.0025436043957183 -0.00026214889494348783
1614 3.2347094709470943 -0.0025430803076685027 -0.00030065280270941786
1615 3.236708670867086 -0.0025424792426093808 -0.00033863480019550245
1616 3.2387078707870782 -0.0025418022439439233 -0.00037610031635285784
